"","Est.","S.E.","t.value","p","Est.1","S.E.1","t.value1","p1","Est.2","S.E.2","t.value2","p2","Est.3","S.E.3","t.value3","p3","Est.4","S.E.4","t.value4","p4","Est.5","S.E.5","t.value5","p5","Est.6","S.E.6","t.value6","p6","Est.7","S.E.7","t.value7","p7","Est.8","S.E.8","t.value8","p8","Est.9","S.E.9","t.value9","p9","Est.10","S.E.10","t.value10","p10","Est.11","S.E.11","t.value11","p11","Est.12","S.E.12","t.value12","p12","Est.13","S.E.13","t.value13","p13","Est.14","S.E.14","t.value14","p14","Est.15","S.E.15","t.value15","p15","Est.16","S.E.16","t.value16","p16","Est.17","S.E.17","t.value17","p17","Est.18","S.E.18","t.value18","p18","Est.19","S.E.19","t.value19","p19","Est.20","S.E.20","t.value20","p20"
"1",6.04117283950635,0.220810975604425,27.3590242648486,2.45912151917019e-162,11.3470987654327,0.342291730677324,33.1503736388231,1.01541416565372e-235,25.0735802469178,0.506717039261928,49.482409913508,0,36.8293827160537,0.600591472146855,61.3218542454567,0,26.6206790123503,0.546745483352683,48.6893441699973,0,12.2472222222232,0.439025989199488,27.8963490169557,1.3559862313598e-168,6.44425925925921,0.26526892012495,24.2933067930603,7.99668503671075e-129,6.7035802469156,0.340502081819241,19.6873399748383,1.29192212153013e-85,12.3451234567908,0.398688770105015,30.9643119708114,1.703614018517e-206,24.2989506172865,0.453666487955258,53.5612641938917,0,39.5985185185225,0.614757882571755,64.4131936183844,0,25.0409876543234,0.455598802999751,54.9628038736025,0,10.5874074074071,0.241304577135753,43.8757007143337,0,5.90543209876554,0.177869614319727,33.2009046140411,2.03972587428455e-236,7.15574074074267,0.417354241660804,17.1454846421768,1.65387743200076e-65,12.4593209876532,0.47832505298272,26.0478118592364,1.52451517554531e-147,24.4288271604955,0.479865642294152,50.9076395711633,0,39.272901234571,0.588269114771067,66.7600937197843,0,23.6303703703718,0.414600698375568,56.9954909940024,0,10.4522222222222,0.196454868501389,53.2041903667471,0,5.99172839506147,0.168110957360923,35.6415101616347,3.14269651337316e-271
"2",-1.60740740740817,0.203270222530776,-7.90773674272338,2.73223175210424e-15,-1.88740740740851,0.286768938788465,-6.58163124424281,4.7481237556274e-11,-1.54962962963086,0.450056200951232,-3.44319137555617,0.000575862994434785,-2.35481481481593,0.568169913657997,-4.14456091075843,3.41620793270335e-05,-2.1888888888904,0.490656617319249,-4.46114209332305,8.18903967301471e-06,-1.67555555555666,0.362651026347193,-4.62029729360954,3.85160576591597e-06,-1.31777777777822,0.236570401446849,-5.57034087831265,2.56937537895867e-08,-2.09555555555656,0.302830671673539,-6.91989204388002,4.63238386975401e-12,-2.68666666666766,0.353380424979915,-7.6027603023579,3.00377369854729e-14,-2.29851851851949,0.430512369864927,-5.3390301403898,9.42851946243063e-08,-2.67703703704012,0.599231700758047,-4.46744895781312,7.95155724954081e-06,-1.79777777777847,0.401804636786852,-4.47425841611715,7.7025463513674e-06,-1.03407407407451,0.220798215732726,-4.68334434063657,2.83760377443385e-06,-1.30518518518595,0.182570055389214,-7.14895541003961,8.99178004123802e-13,-2.4985185185201,0.355618181632949,-7.02584583006203,2.18398718342337e-12,-2.76444444444521,0.395138705642016,-6.99613681214444,2.69956953306189e-12,-1.46518518518573,0.446579877797347,-3.28090283067033,0.00103621430482759,-1.0414814814807,0.577910787677697,-1.80214923079363,0.0715343434777986,1.08074074074134,0.405449630026052,2.66553638406797,0.00769165398933573,-0.385925925925877,0.219305815859328,-1.75976147469534,0.0784608651587318,-0.970370370370545,0.190956315815946,-5.08163537940184,3.7697635615275e-07
"3",-1.59685185185197,0.195516262529731,-8.16736076677585,3.30428944563163e-16,-2.08500000000086,0.273359707145033,-7.62731282447067,2.48490201269768e-14,-3.86296296296479,0.411165857382538,-9.39514527678982,6.20180247982065e-21,-8.65000000000154,0.550737552692401,-15.7062106219453,2.5702491469968e-55,-4.1109259259275,0.428146926160359,-9.60167100297664,8.60054524691211e-22,-2.17037037037129,0.320882521344619,-6.76375379150169,1.37518968221604e-11,-1.66722222222225,0.219911039786783,-7.58134845726128,3.54226768501639e-14,-3.55814814814814,0.275501218986449,-12.9151811423497,4.9339189702005e-38,-4.4966666666662,0.317201805044799,-14.1760437524343,1.95844044391531e-45,-2.93537037037105,0.391484348433972,-7.49805294161366,6.69917938626086e-14,-1.87666666666925,0.562921296071224,-3.33379937793614,0.000857967150488626,-2.55222222222213,0.373010758179377,-6.84222148090108,7.9830318954858e-12,-0.978333333333712,0.208218782366583,-4.69858349095179,2.63408789273077e-06,-1.39185185185246,0.171051240699655,-8.13704622170137,4.24304194629946e-16,-3.52907407407437,0.335074388351038,-10.5322107471167,6.98089922166571e-26,-3.73314814814781,0.370434741357504,-10.0777484705328,7.72084671718383e-24,-1.97148148148206,0.404738669745924,-4.87099856981708,1.11735299215655e-06,-2.47111111111212,0.552518865448568,-4.47244658172155,7.76806426990939e-06,-0.446111111112332,0.344017215603115,-1.2967697280214,0.194722768527599,-0.786296296296782,0.187951807764494,-4.18349951324768,2.88065088790054e-05,-1.52499999999994,0.166127189759908,-9.1797134605354,4.65795059995283e-20
"4",-1.30407407407502,0.203810673363813,-6.39845819922874,1.59819715664453e-10,-3.2016666666679,0.288058671967162,-11.1146338515123,1.24879971501565e-28,-11.1372222222238,0.446176366048075,-24.9614795173257,8.30610780567607e-136,-21.8301851851856,0.559469313172706,-39.0194505242627,4.94065645841247e-323,-12.0057407407424,0.46792454461595,-25.6574289143053,2.85104467942388e-143,-3.97277777777871,0.344278351733395,-11.5394353370646,1.00420757348063e-30,-1.63944444444507,0.232837509280805,-7.04115264550388,1.95740431807802e-12,-1.14092592592817,0.302320028738665,-3.77390122211988,0.000161096972719461,-3.41000000000202,0.346554047555618,-9.83973502561603,8.37575662999912e-23,-7.96814814814898,0.421805560715073,-18.8905716051747,5.04085884472632e-79,-16.1700000000007,0.62161659049416,-26.0128192317811,3.70280003267707e-147,-7.16796296296357,0.395388872220094,-18.1288940245478,5.72223858550348e-73,-2.50796296296333,0.215764191492699,-11.6236292297287,3.78077296614066e-31,-1.56425925925987,0.176246179866624,-8.87542221024954,7.43807962178563e-19,-2.08500000000218,0.351907010599929,-5.92486065124899,3.16781125780215e-09,-4.37462962963009,0.389606141544461,-11.228338476104,3.49402174260536e-29,-8.65574074074128,0.436544845036809,-19.8278386267771,8.35118618409844e-87,-15.9961111111117,0.589083159819096,-27.1542495222984,5.57032874155468e-160,-8.04000000000042,0.388598180400365,-20.6897520511212,2.79624373982508e-94,-2.22555555555628,0.205318532055737,-10.8395259466989,2.58334370114679e-27,-1.21444444444485,0.174553742358062,-6.95742427540549,3.55363222520762e-12
"5",-2.22018518518517,0.206457396159511,-10.7537207505506,6.54589054929458e-27,-5.6944444444435,0.285273541296772,-19.9613480400537,6.07973562866467e-88,-17.7683333333312,0.405274113957356,-43.8427541296182,0,-26.8572222222175,0.497729952343661,-53.9594253786716,0,-18.8190740740723,0.436377155508925,-43.1257086593467,0,-7.10555555555463,0.338326625676764,-21.0020584142356,4.59832906658467e-97,-2.96592592592523,0.229578475282968,-12.9190069856051,4.69623827015448e-38,-2.83870370370307,0.292252476902648,-9.7131895468885,2.90868635541958e-22,-5.96111111110999,0.3369287557301,-17.6924973298664,1.31261458903679e-69,-13.279074074071,0.39981211538575,-33.2132858486767,1.37602374670446e-236,-29.9338888888828,0.507532247438136,-58.9792846464036,0,-13.4368518518498,0.378277280834757,-35.5211706666556,1.84503653801297e-269,-5.43444444444304,0.215212218026016,-25.2515609675381,6.78768667573604e-139,-2.69074074074025,0.179600206555732,-14.9818354463044,1.62472804456666e-50,-3.8814814814813,0.344226981993314,-11.2759361831685,2.04237951171225e-29,-7.08907407407181,0.382305119316152,-18.542974487897,3.13071879426436e-76,-15.6138888888861,0.409342698449181,-38.1438070058175,3.23483402789358e-309,-29.1866666666615,0.50194551276173,-58.1470815548784,0,-15.0025925925895,0.351223229441789,-42.7152629296007,0,-5.44240740740629,0.209586251209756,-25.9673875361198,1.16996481703468e-146,-1.78333333333282,0.194063283633773,-9.1894422269915,4.25671987654567e-20
"6",-1.00351851851869,0.204065220418235,-4.91763621680348,8.81681411435329e-07,-1.4770370370374,0.282742038921639,-5.2239739186671,1.76570090673543e-07,-1.04314814814991,0.439783677051125,-2.371957402204,0.0177018908475115,-1.0475925925935,0.568249219104631,-1.84354427137471,0.065261778321278,-2.994814814816,0.46275833320908,-6.47166047566971,9.87829476939111e-11,-2.34000000000042,0.341751962153246,-6.84707114849316,7.71763754567621e-12,-1.54518518518537,0.228871911294451,-6.75130983284986,1.49823700594088e-11,-0.685740740741094,0.31628653144181,-2.168099721525,0.0301607933668155,-0.528518518518687,0.365223526695353,-1.44710972839256,0.14787912047643,0.238518518518115,0.439794438365572,0.542340915916381,0.587588657788634,-0.90592592592698,0.58496599163793,-1.54868135733899,0.121471387615051,-1.50277777777816,0.394632568139852,-3.80804297238234,0.000140415861459527,-1.14592592592601,0.21568671053302,-5.31291855253447,1.08834842350005e-07,-0.899444444444569,0.180057332727032,-4.99532249435314,5.91454945831548e-07,-0.969074074072868,0.383080262481746,-2.52968938622633,0.0114226334276895,-1.08425925925755,0.418338867948299,-2.59182051281821,0.00955267965526618,-0.824999999998845,0.441996851084317,-1.86652913470975,0.0619794320748937,-0.397962962962822,0.571058272024624,-0.696886784516557,0.485880329305598,-0.117777777777886,0.387448082679279,-0.303983380078769,0.761143161421659,-0.355000000000003,0.230374881218623,-1.54096661112594,0.123337960938087,-0.76611111111116,0.203299619037337,-3.76838439117026,0.0001646965128992
"7",-1.21574074074089,0.204433331010989,-5.94688123863489,2.77042427939994e-09,-1.41740740740767,0.294207947254902,-4.81770604986284,1.46095121080208e-06,-0.574259259260406,0.44682297649719,-1.28520530381458,0.198732825499051,0.184629629628818,0.549952563676255,0.335719190750977,0.737085537266005,-2.64703703703799,0.45984587333605,-5.75635705466812,8.69846938499450e-09,-2.62611111111137,0.334601283397199,-7.84847889538416,4.38436342162039e-15,-1.87500000000015,0.223437012632858,-8.39162669562302,5.05288568996107e-17,-1.22740740740792,0.298114281395266,-4.11723786483248,3.8470912789121e-05,-1.3016666666671,0.350363179514227,-3.71519252814135,0.000203504677109284,-0.903148148148725,0.417630314732136,-2.16255409698406,0.0305852361545417,-1.38518518518589,0.581367817769071,-2.38263134430347,0.0171970568806235,-1.59203703703743,0.387435593299817,-4.10916566409901,3.98395416877881e-05,-1.30703703703709,0.217800643734534,-6.00107058742291,1.98802482509742e-09,-1.05462962962974,0.18130466953424,-5.81689171238124,6.07049241906904e-09,-1.38888888888911,0.351701705451808,-3.94905360809921,7.86824327290704e-05,-1.78537037037016,0.392819794804219,-4.54501120866373,5.51974789109246e-06,-1.30037037037046,0.44172615848466,-2.94383827036953,0.00324476694208323,-0.825185185185385,0.558177860809287,-1.47835527548329,0.139325698306973,-1.53981481481512,0.361837321411116,-4.25554447730835,2.09323491827401e-05,-1.29500000000012,0.18145397963326,-7.13679580143391,9.82196120561919e-13,-1.17944444444452,0.160959847637349,-7.32756933954033,2.41689276722196e-13
"8",2.24685185185168,0.24696664721103,9.09779469100445,9.90829026457747e-20,1.71388888888857,0.327821374245107,5.22811818733675,1.72662984572596e-07,-1.27444444444531,0.459103960110747,-2.77593868747698,0.00550847748914983,-3.76296296296316,0.545463106333044,-6.89865715806195,5.37872485535754e-12,-0.983888888889307,0.488450407860505,-2.01430661753136,0.0439883718640849,1.66537037037013,0.381701158994205,4.36302151861009,1.28807801727354e-05,2.45074074074049,0.276901204937788,8.85059615862311,9.28741844398744e-19,4.22796296296168,0.355844836653054,11.88147902532,1.81807021071844e-32,2.23685185185142,0.396386286749177,5.64311109295978,1.68867527478576e-08,-1.35185185185187,0.440600529005793,-3.06820297039202,0.00215587770188893,-5.80962962962861,0.574564277745384,-10.1113658726328,5.48895216112086e-24,-2.28407407407369,0.421260423376475,-5.42200013893173,5.94984342156287e-08,0.887407407407486,0.257819034035506,3.44197786143778,0.000578451248410855,1.77796296296282,0.221541091164349,8.02543200278748,1.0572113255038e-15,4.65740740740703,0.410658393973988,11.341317931765,9.73314981488937e-30,3.04277777777821,0.442213611773695,6.88078724120181,6.09713462991506e-12,-1.06814814814768,0.459663618289186,-2.32376047537371,0.020146557825294,-5.73148148148101,0.557879928328844,-10.2736829027887,1.04061351416875e-24,-2.80999999999983,0.397441894694019,-7.07021589196878,1.58886281436264e-12,0.454074074074152,0.246233811177374,1.84407686297419,0.0651841304905387,1.38296296296298,0.217939777057931,6.34561979291817,2.25446923742355e-10
"9",-0.124259259259292,0.192399527462626,-0.645839732030678,0.518389265062621,-0.117407407407556,0.280276172178601,-0.418898996996221,0.675293660372856,-0.462962962964062,0.438412559322308,-1.05599840405964,0.29097946445276,-0.927037037037875,0.563596624187699,-1.6448591017982,0.100011832404573,-0.332407407407944,0.461339738777413,-0.720526283490882,0.471207968358701,-0.186666666666751,0.342440190381748,-0.545107355706868,0.585684697327935,-0.0451851851851671,0.220366644630578,-0.205045483452886,0.837538310282962,-0.195555555556324,0.286767947940283,-0.681929612290725,0.495289972884844,-1.34555555555581,0.339255293200437,-3.96620357154113,7.32362095012688e-05,-0.127777777777926,0.416395152075151,-0.306866631710604,0.758947523413053,-0.233148148147688,0.590020371510215,-0.395152708966509,0.692733667096654,-0.661851851851752,0.384429735601606,-1.72164583162642,0.0851464490183811,-0.069444444444312,0.208466943058447,-0.333119694784618,0.739046813293448,-0.110555555555547,0.171168771170463,-0.645886248990168,0.518359137543954,0.347962962962968,0.349408252109719,0.995863609007447,0.319326356078998,-0.384629629628916,0.393722304628357,-0.976905867682492,0.328625502069869,-0.185185185184862,0.432241025045625,-0.428430376698545,0.66834161815092,-0.475925925925962,0.566805507369701,-0.839663552555316,0.401105333076625,-0.516481481481648,0.370394531041651,-1.39440903738281,0.163206895246365,-0.445925925925847,0.193010567243756,-2.31037052682552,0.0208760004577751,-0.558888888888749,0.17555359603367,-3.18357983838484,0.00145649700432906
"10",1.99092592592608,0.23483750695583,8.47788733466903,2.42194912969608e-17,-0.363703703703818,0.313778301205098,-1.15911043659481,0.246422586163686,-9.43333333333536,0.438834002829331,-21.4963591529258,1.49455427506385e-101,-18.0387037037065,0.537616645235453,-33.5530974786064,2.65611749510417e-241,-10.5268518518536,0.466959819255889,-22.5433782902956,2.17762421178246e-111,-1.18962962962987,0.363747227355058,-3.2704843918127,0.00107513226899035,1.68018518518542,0.258157406948565,6.50837489051854,7.74517385700334e-11,4.03481481481449,0.328605552609056,12.2785959725237,1.49513708277243e-34,0.0872222222215742,0.365827708675427,0.238424318752083,0.811554022221018,-8.32055555555696,0.426717589903696,-19.4989748546217,4.93380030666163e-84,-18.2312962962985,0.569903353529614,-31.9901544417761,5.55625587842172e-220,-8.69129629629741,0.403238205438667,-21.5537520479799,4.43525453668843e-102,-0.488888888888904,0.249507834422007,-1.95941297803907,0.0500758815477351,1.88425925925945,0.21524551474037,8.75400010788729,2.19088843853379e-18,4.54759259259299,0.382857921451049,11.8780161981693,1.89451128013539e-32,0.828888888889359,0.415845742159247,1.9932604926659,0.0462441152089232,-8.06666666666734,0.441784126492387,-18.25929494279,5.47034824016052e-74,-19.2911111111131,0.550903386471586,-35.0172309425585,4.11332088803279e-262,-9.16222222222328,0.381756694595983,-24.0001612333734,8.12854741347214e-126,-1.15055555555557,0.229764455968087,-5.00754370691426,5.55155745840868e-07,1.06925925925939,0.209608457664553,5.10122192192539,3.40009745034959e-07
"11",0.61629629629617,0.21892846462222,2.81505786540659,0.0048807766016475,-1.94111111111142,0.297116478031391,-6.53316545744171,6.56705152677869e-11,-9.58703703703854,0.438103692647651,-21.88303179802,3.92578673934701e-105,-16.8157407407419,0.542396992820718,-31.0026437523043,5.42883324063248e-207,-10.1431481481491,0.465901097825111,-21.7710329413231,4.33833871558743e-104,-2.13685185185212,0.355027951814783,-6.01882708369652,1.78207639794437e-09,0.538703703703714,0.246127394927053,2.18871899190001,0.0286267738903479,2.71888888888825,0.314092588741667,8.65632933199982,5.16965120626472e-18,-1.19018518518584,0.355071554727979,-3.3519586949105,0.000803646002222001,-8.51129629629729,0.415059853922216,-20.5061901696047,1.159289751524e-92,-16.359074074075,0.573876563056127,-28.5062592327454,7.77049925620362e-176,-8.13944444444486,0.396086697756198,-20.5496536252144,4.8131269524123e-93,-1.42111111111108,0.223868255010316,-6.34797957863924,2.22022300813698e-10,0.778148148148207,0.189865436531422,4.09841918763042,4.17334207169665e-05,3.0466666666667,0.372004674493977,8.1898612451872,2.74296142726274e-16,-0.605925925925644,0.407263595129997,-1.48779791066824,0.136817199927151,-8.84907407407453,0.433543512570474,-20.4110402243329,7.89289719881981e-92,-17.1640740740748,0.551965857787388,-31.0962604514685,3.30624678440062e-208,-8.24296296296345,0.378717652322171,-21.7654574916705,4.88799974894845e-104,-2.3403703703705,0.210249541704959,-11.131393445103,1.03586444916584e-28,-0.162592592592607,0.18652479001437,-0.871694280315667,0.383383811634212
"12",0.898518518518783,0.18277078633149,4.91609483415553,8.8864107457841e-07,0.856296296296658,0.238492446082504,3.59045458404343,0.000330753428147978,-0.479259259258869,0.352574567071645,-1.35931318937557,0.174060007028035,-1.35185185185164,0.42639111097296,-3.17045036132886,0.00152392148904879,-0.634074074073839,0.365229936469542,-1.73609556818658,0.0825596393006193,0.222222222222407,0.259184294646956,0.857390771015285,0.391237431513923,0.265185185185314,0.194455275312356,1.3637335616601,0.172664096087595,1.24444444444468,0.274473928883719,4.53392586139536,5.81742123155547e-06,1.2903703703701,0.305932543484283,4.21782643871095,2.47563352213963e-05,0.856296296296113,0.348469033493876,2.45730958561964,0.0140051490049108,-0.90074074073996,0.47838917671201,-1.8828618718567,0.0597310496355547,0.757037037037249,0.30887223027627,2.45097151129488,0.0142541318094481,0.468148148148295,0.186998459733125,2.50348665340032,0.0123041511228731,0.797777777777979,0.167784430999878,4.75477833684436,1.99804796359194e-06,1.63185185185225,0.299033710316162,5.45708325033633,4.88757364339252e-08,1.34296296296329,0.320398899952202,4.19153425047226,2.78055778013974e-05,-0.62888888888866,0.353006645720012,-1.78152138639187,0.0748398262719597,-3.12814814814863,0.459180375156889,-6.81246045648147,9.81879319672165e-12,-1.15111111111129,0.314524795984333,-3.65984216763829,0.000252905926682588,-0.272592592592719,0.194528654290438,-1.40129788892555,0.161137810141842,-0.116296296296424,0.176094671531678,-0.660419167058685,0.508991148751626
"13",0.182222222222308,0.173142206480044,1.05244253222169,0.292607050708991,-0.0399999999997794,0.224280548882294,-0.178348056481582,0.858451129975138,-1.39166666666617,0.319824705618592,-4.35134197645698,1.35859622625411e-05,-0.754814814814452,0.394465529258952,-1.91351273768448,0.0556942058477874,-1.84259259259216,0.319136794287542,-5.77367644713503,7.85064244196933e-09,-0.528888888888713,0.231471115457313,-2.28490232072282,0.022327150934214,-0.0996296296295273,0.17934460329738,-0.555520644601314,0.578543718138351,2.23592592592572,0.244060742191695,9.16135018621526,5.51981878285775e-20,2.114629629629,0.270082013367475,7.82958333012657,5.09431175215407e-15,-0.0216666666668755,0.314790754712796,-0.0688287897357196,0.945126469043668,-4.64444444444348,0.442347925042866,-10.4995280445667,9.85860389531354e-26,-0.302592592592639,0.283768455264944,-1.06633625753123,0.286282281512196,-0.750925925925822,0.175863693723516,-4.26993150221438,1.96276291028375e-05,-0.366111111111038,0.16000893557153,-2.28806666204822,0.0221422040639953,2.03037037037026,0.279503862433681,7.26419432165098,3.86597804267597e-13,1.66166666666654,0.298857165795805,5.56006968158788,2.72506150180183e-08,-1.17759259259216,0.329686294858736,-3.5718578871977,0.000355144045486379,-4.91851851851809,0.428339359270555,-11.4827610679862,1.93065894084737e-30,-2.15092592592572,0.277849161573167,-7.74134394988737,1.02200903290547e-14,-1.40407407407404,0.174713014089741,-8.03645956993701,9.66550109765345e-16,-0.564629629629679,0.159968955459621,-3.52962003163297,0.000416927590865284
"14",0.648888888889075,0.183203669265717,3.54189897773244,0.000398002903037188,0.516296296296676,0.236875550564787,2.17960990514074,0.0292959773809533,0.0214814814820797,0.327691002750875,0.0655540777798251,0.947733391443381,-0.0940740740736521,0.38345801960156,-0.245330829620936,0.80620235851445,-0.0518518518514836,0.34014142199339,-0.152442038807292,0.878839570628649,-0.230370370370127,0.254096931713587,-0.906623975411854,0.364614687429623,0.252592592592699,0.191263712303727,1.32065089373347,0.186630258339025,1.5607407407406,0.265523038841929,5.877986134641,4.20721302161924e-09,1.75999999999919,0.296800079135671,5.92991755637191,3.07191429135799e-09,-0.585925925926297,0.34212427888608,-1.71261135817081,0.0867968464598484,-0.00444444444345649,0.406288337926564,-0.0109391386081572,0.991272094258421,1.58666666666659,0.292684373136627,5.42108432255083,5.98037235380332e-08,0.463703703703794,0.1837281895799,2.52385714333803,0.0116138410511391,1.04296296296302,0.167697104702782,6.21932599737793,5.07447806676996e-10,2.177037037037,0.288555658325645,7.54460005972275,4.69609414661759e-14,2.01185185185179,0.310329708120999,6.48294958298792,9.16762225898754e-11,-0.299999999999527,0.33835057732259,-0.886654316872943,0.375273833796232,-0.829629629629562,0.404262818998942,-2.05220364238279,0.0401605873767115,-1.3103703703702,0.286235820623949,-4.57793985223024,4.71907895551612e-06,-0.72222222222221,0.195587277916967,-3.69258281987449,0.00022247486102875,-0.121481481481573,0.184968226160142,-0.656769457130416,0.511335398650655
"15",-0.499259259259078,0.173137297914601,-2.88360315929924,0.00393499626673091,-1.07444444444401,0.221269008786477,-4.85582888600924,1.20630568523653e-06,-0.406851851851238,0.298984233763053,-1.3607802884137,0.173595779744115,1.52425925925956,0.358848899766452,4.24763531461734,2.16843679712181e-05,-0.588518518518167,0.300289973337226,-1.95983406298172,0.0500266249360195,-1.13407407407386,0.226273269062521,-5.01196663119985,5.42555977314494e-07,-0.557037037036926,0.17523759627716,-3.17875301231536,0.00148095821398634,2.87037037037021,0.235491838598746,12.1888316276685,4.48541267073964e-34,3.41018518518435,0.261383526467685,13.0466721880652,8.96815103119383e-39,-0.595000000000418,0.308771046251426,-1.92699415059766,0.0539920287213543,-2.12981481481425,0.380678551983003,-5.59478542649638,2.2327763829084e-08,2.00314814814798,0.26932265967735,7.43772599954184,1.05831088727336e-13,-0.629814814814727,0.173172085844346,-3.63693035019992,0.00027647807491221,-0.264259259259179,0.158391470652765,-1.66839324219992,0.0952505994309521,2.51796296296294,0.2702907216706,9.31575803786394,1.31069661628402e-20,2.17277777777771,0.290197667576485,7.48723377387258,7.27362815025015e-14,-1.79111111111069,0.314799596604697,-5.6896868052847,1.28738695454627e-08,-2.3135185185183,0.382154786660549,-6.05387816474819,1.43476356231459e-09,-2.28814814814797,0.253403632498489,-9.02965804233927,1.84705570575907e-19,-2.02722222222222,0.173295127161848,-11.6980913163756,1.5844207718332e-31,-0.901666666666753,0.166629565958834,-5.41120455711628,6.31951899626079e-08
"16",0.514814814814901,0.167315552223485,3.0769095160219,0.00209391835771625,0.513333333333428,0.217292149251489,2.36241086068558,0.0181643590602361,-0.427407407407071,0.309206114565489,-1.38227346508876,0.166900481504296,-0.082222222221901,0.379394921583332,-0.216719353750868,0.828428887446992,1.01111111111135,0.331963453170263,3.04585068463172,0.00232272129868786,0.791851851851952,0.244635695815704,3.236861444981,0.00121014332498511,0.489629629629664,0.183636123353999,2.66630345210345,0.00767412977475937,0.43259259259277,0.237857497430128,1.81870488534777,0.0689687953363357,0.417777777777904,0.26267063564617,1.59050050170309,0.111735068457963,0.725185185185369,0.323200036059006,2.24376579293751,0.024856461126763,1.69259259259373,0.419691755993227,4.03294219727548,5.52513405861392e-05,0.671111111111197,0.295242562186563,2.27308388784109,0.0230298330749288,0.470370370370404,0.177543344552769,2.64932696607278,0.00807045434146126,0.334814814814883,0.158595988472396,2.11111780341883,0.0347723937864313,0.0718518518519037,0.261154856856332,0.275131210335603,0.783217778235177,0.00370370370363746,0.282688678811667,0.0131017050955371,0.989546758628685,0.250370370370341,0.324930973721779,0.770534022972889,0.440990687916904,0.62222222222199,0.41068731079114,1.5150753526408,0.129766356734491,-1.23037037037046,0.293184657727534,-4.19657147105522,2.71950236448785e-05,-0.314814814814836,0.191712677809018,-1.64211787354226,0.100578545149716,0.229629629629668,0.175765096187215,1.30645750840701,0.191409410970969
"17",0.236296296296324,0.158119329838062,1.49441751706339,0.135079537989951,0.324259259259304,0.201921417915091,1.60586857306864,0.108315811087542,-0.0240740740736481,0.277634494600167,-0.0867113940878211,0.930901635307786,-0.626851851851651,0.344135714275691,-1.82152513048812,0.0685393846786936,0.706296296296496,0.293059021665371,2.41008207931227,0.0159563281262383,0.44166666666673,0.220958307513169,1.99886879854203,0.0456336931123121,0.403333333333343,0.170447910139215,2.36631433617413,0.0179739974512458,0.589259259259393,0.212271919314428,2.77596424982879,0.00550804455996032,0.406666666666701,0.234459561114595,1.73448531906079,0.0828447158291381,0.0224074074075747,0.297447126356224,0.0753324050632767,0.939950860642069,-0.297037037036326,0.390132123556696,-0.761375490765398,0.446440226419115,1.07462962962957,0.266017794017798,4.03969077932309,5.36864920694108e-05,0.47685185185185,0.164079638161271,2.90622198583325,0.00366152811004222,-0.000185185185139127,0.147663934277121,-0.00125409895141755,0.998999384387351,0.138333333333141,0.243105126719936,0.569026804163222,0.569343220015474,-0.0357407407410632,0.260966687216283,-0.136955184289258,0.891067355983529,0.0670370370368277,0.297879623485634,0.225047407581609,0.821944290472941,0.435555555555357,0.382372041971387,1.13908839493017,0.254677539762005,-0.112407407407378,0.257364337018484,-0.436763728454362,0.66228659542708,0.117777777777753,0.17163303739277,0.686218571709052,0.492581849273809,0.303518518518516,0.160215699013667,1.89443681478819,0.0581789404316238
"18",0.365925925925962,0.166876531282976,2.19279441580347,0.0283316597968135,0.0103703703704389,0.220246062967904,0.0470853836417961,0.96244556433,-1.09925925925894,0.3130142248627,-3.511850810426,0.000445806463734747,-1.75703703703672,0.368895161334573,-4.76297122109216,1.91865510887389e-06,0.527407407407578,0.326258544302084,1.61653209277869,0.105992328596201,0.833333333333347,0.238121030053465,3.49962089928067,0.00046675607405038,0.619259259259247,0.177356551178447,3.49160634408243,0.000480979247390584,0.490370370370523,0.223035517939019,2.1986200893106,0.027914358428586,0.69925925925939,0.251193194851571,2.78375080850649,0.00537759040361533,1.30518518518529,0.312964265349364,4.1703968461968,3.05126189314222e-05,1.23777777777873,0.423131314190478,2.92528048921837,0.00344464738884741,0.657037037037091,0.289293937675627,2.27117457875594,0.0231451377948303,0.505925925925942,0.174829481188575,2.89382501444502,0.00380919230583387,0.161481481481536,0.154981675421573,1.04193919082551,0.297450260366335,-0.0496296296293444,0.244657102237379,-0.202853827563081,0.839250986090444,-0.0799999999998294,0.268030966279546,-0.29847297538148,0.765344756618164,0.0829629629630939,0.318427132027347,0.260539868053608,0.794449578865758,-0.208888888889171,0.404877659054891,-0.515930884842551,0.6059073862629,-1.27777777777776,0.28250678029564,-4.52299862127409,6.12584969036391e-06,-0.0377777777777812,0.175634726160012,-0.215092872598348,0.829696719564793,0.21925925925928,0.164004332934397,1.33691138115836,0.181264107121705
"19",0.261666666666684,0.15857933991532,1.65006782602583,0.0989420157541537,0.0251851851852351,0.206761168825179,0.121808100275008,0.903052007966723,-1.07444444444419,0.284153493894109,-3.78121144920563,0.000156441255671036,-2.46370370370352,0.340843064785231,-7.2282641433703,5.03687167535564e-13,0.778703703703891,0.28514606454751,2.73089409436386,0.00632084091418958,0.593703703703712,0.211734776415788,2.80399712203083,0.00505134699324305,0.4661111111111,0.162822958434305,2.86268666036532,0.00420425572111266,0.523703703703822,0.201817553321105,2.59493634268063,0.00946653971167699,0.564259259259355,0.223390603440188,2.52588627529462,0.0115469970513257,0.655370370370513,0.283254411687265,2.31371637414811,0.0206916041106626,-0.604444444443871,0.38742499740214,-1.56015860746453,0.118735454474331,0.339814814814804,0.262080916312905,1.29660266606017,0.194780272845422,0.201296296296299,0.163185719858963,1.23354112400445,0.217385899972081,0.00203703703707356,0.146319554862269,0.0139218373032301,0.988892454299714,0.0522222222223949,0.229029623213277,0.228015142712629,0.819636390914157,-0.0314814814814439,0.250229502388302,-0.125810430748455,0.899883027840187,0.274814814814904,0.294521749081309,0.933088356537757,0.350783640796357,-0.648148148148277,0.368908151237276,-1.75693637013566,0.0789412747325808,0.250000000000032,0.244727329984699,1.02154508046021,0.307006453349464,0.3009259259259,0.149694486353418,2.01026726672775,0.0444139616114222,0.0285185185185131,0.143389627561345,0.19888829480579,0.842351793440597
"20",0.0111111111111539,0.166827503619493,0.0666023939103984,0.946898788991202,-0.0733333333332732,0.216813018543794,-0.338233072099684,0.735190483232144,-0.257777777777489,0.30804251493812,-0.836825325326512,0.402699006390782,-0.0533333333331011,0.368036697444469,-0.144913085307609,0.884780699274826,-0.34888888888864,0.319163526608747,-1.09313521064182,0.274345297607177,0.00518518518532205,0.230505037277775,0.0224948888170003,0.982053374190727,0.112592592592661,0.175355114330412,0.64208331204135,0.52082516036186,0.742962962963279,0.238238837213709,3.11856358792086,0.0018194766063444,0.989629629629836,0.266089119724249,3.71916608486435,0.000200331937632774,-0.390370370370219,0.314522859723719,-1.24115102702908,0.214561968678105,-0.859259259258624,0.408363850629443,-2.10415113368674,0.0353755330885519,-0.697777777777755,0.28838751631141,-2.41958385266675,0.0155455836074811,-0.543703703703692,0.173192999290571,-3.13929377013388,0.00169558706842374,-0.279999999999948,0.155877630288418,-1.79628083569059,0.072462306544372,0.487407407407609,0.259573054416252,1.87772728761746,0.0604304738070353,0.501481481481509,0.279045700319006,1.79713029409955,0.0723273756422901,-0.771111111110959,0.315495297138213,-2.4441287020933,0.0145273190288293,-0.983703703703773,0.396480854282603,-2.48108753065441,0.0131049473243457,-0.393333333333222,0.282598500379774,-1.3918450834121,0.163982080294736,-0.121481481481454,0.184037482831883,-0.660090975013098,0.509201719536788,0.182222222222225,0.16940847993012,1.07563813982269,0.282099824951047
"21",0.438333333333286,0.157926221332402,2.77555765999546,0.00551493428997943,0.184629629629609,0.202283236427178,0.912728275909684,0.361394542838083,-0.020740740740489,0.278971602246797,-0.0743471399004275,0.940734781832037,1.27814814814832,0.336072834116061,3.80318793546674,0.000143195975949708,-0.367222222221977,0.280599494150237,-1.30870593097136,0.190646384624318,0.120555555555614,0.20564741770517,0.586224504547149,0.557730113035903,0.346481481481438,0.161309221873125,2.14793349975959,0.0317289158130596,1.13574074074099,0.212410054286562,5.34692552363256,9.02697042020408e-08,1.46833333333344,0.235260775926305,6.24130107346664,4.41130828792334e-10,-0.855370370370123,0.280847745026114,-3.04567291537479,0.00232409436720045,-2.79129629629587,0.373554004911106,-7.47226976447517,8.14867070238147e-14,-1.33777777777776,0.260793266015345,-5.12964846914047,2.92518070194917e-07,-0.777592592592587,0.161606978572009,-4.81162756375712,1.50605873921796e-06,0.00259259259258262,0.147103411317796,0.0176242859996066,0.985938727256773,1.23722222222225,0.242357920219365,5.10493827105963,3.33402269094415e-07,1.06425925925912,0.259587934619262,4.09980248434917,4.14849343527793e-05,-1.54888888888871,0.29123645513118,-5.31832077200314,1.05656727658524e-07,-2.58462962962939,0.365117217202414,-7.0789037269544,1.49257349376015e-12,-1.622222222222,0.249884101166986,-6.49189850273007,8.64002049360830e-11,-0.561111111111121,0.162686995636408,-3.44902251661932,0.000563575723056158,0.397222222222153,0.15221018337235,2.60969544495214,0.0090678533376994
"22",-0.0259259259258974,0.138777709510528,-0.186816211460318,0.85180629863539,-0.00740740740736549,0.188583497083145,-0.0392791920922944,0.968668119472815,0.0377777777780834,0.300752695705346,0.125610770302438,0.900041078338096,0.107407407407781,0.381729385162992,0.281370550925547,0.778428603859834,0.0896296296298773,0.310682485609428,0.288492701653464,0.772972082232776,-0.0888888888887727,0.20501138629746,-0.433580253731858,0.664597133454389,-0.0437037037036614,0.144004866114356,-0.303487686790776,0.761520833477228,0.0866666666669554,0.194228373644801,0.446210123889771,0.655449454867937,0.767407407407655,0.22712404442487,3.37880302083782,0.000729167370293823,0.61407407407424,0.308905616632995,1.98790193835747,0.0468337626193759,0.00518518518565652,0.429000331359795,0.0120866694186951,0.990356567311034,0.054814814814826,0.277848655156214,0.197282994888018,0.843607739453458,-0.277777777777789,0.151392748460266,-1.83481560776799,0.0665452580945546,-0.168148148148112,0.13125627737241,-1.28106747741314,0.200182217161138,0.0148148148149795,0.221228991988031,0.0669659735003495,0.94660934367048,0.482222222222256,0.244398500926178,1.97309811801142,0.0484957229768546,0.208888888889029,0.310017566256293,0.673796944513586,0.500446840005609,-0.709629629629746,0.411673721593196,-1.72376713015212,0.0847626368860709,-0.119259259259173,0.274794434665045,-0.433994448994362,0.664296333152703,-0.0200000000000002,0.159871472588314,-0.12510049276585,0.900445030215454,0.120000000000013,0.146106455499288,0.821318945764158,0.411472693360487
"23",0.0107407407407564,0.127195745112838,0.0844426103343944,0.932705227176334,0.10537037037039,0.172585390869924,0.610540497311309,0.54150954731971,0.405555555555794,0.270041086256858,1.50182907785386,0.133154277684607,0.466851851852111,0.35441836116015,1.31723382029058,0.18777270713238,0.293333333333516,0.270132087567006,1.08588852207628,0.277539110156362,0.0714814814815573,0.179612797057504,0.39797543745545,0.690651795064197,0.0718518518518588,0.130537788196536,0.550429518107657,0.582029877454433,0.34555555555584,0.171741567768249,2.01206708455194,0.0442239038503337,1.93370370370385,0.199034061921591,9.71544109101102,2.84535524597613e-22,2.31481481481494,0.283474879918712,8.16585517375908,3.34565342976776e-16,-1.35740740740724,0.394389104568622,-3.4417974322388,0.000578837002077457,0.75333333333323,0.250791794040793,3.00381970715794,0.00266885328469009,-0.422037037037061,0.137980923669766,-3.05866221077876,0.00222570068099663,-0.23018518518517,0.11945644422185,-1.92693819646664,0.0539990027765531,0.401666666666775,0.20616504190926,1.94827727798567,0.0513933146078884,1.32851851851843,0.226411376889353,5.86771979734781,4.475705311848e-09,0.812407407407488,0.288806530481156,2.81298143104314,0.00491239492575323,-1.71740740740739,0.383829254785956,-4.47440466299295,7.69728101261179e-06,-0.567407407407281,0.244634820686626,-2.31940574042042,0.0203813111061541,-0.275185185185225,0.143891846323427,-1.91244460486447,0.0558309599914837,0.250370370370343,0.132469731439859,1.89001946066458,0.0587672723586652
"24",-0.682222222222214,0.152887622268306,-4.462246270172,8.14697848297009e-06,-0.604444444444392,0.209883214594056,-2.87990845582137,0.00398138884266083,0.106666666667046,0.321566221913314,0.33170979847442,0.740111267826439,0.984444444445207,0.392393972103159,2.50881643050928,0.0121201119465743,-0.0985185185181128,0.331637283015637,-0.297067077688812,0.766417843087546,-0.359999999999891,0.225951047967225,-1.59326545833109,0.111113685671922,-0.380740740740738,0.161376904752049,-2.35932608402506,0.0183160416386513,-0.460740740740513,0.222176999101248,-2.07375535093328,0.0381125679437165,-0.454814814814261,0.258909254310401,-1.75665723508281,0.0789888713229952,-0.568888888888479,0.334145554958034,-1.70251820036908,0.0886710860131922,-0.0333333333320708,0.439165853034401,-0.075901468890979,0.93949811437616,-0.212592592592352,0.289397261193322,-0.734604715040259,0.462587369147677,-0.842962962962875,0.166624639210711,-5.05905349266429,4.24416264357309e-07,-0.831111111111038,0.14501839370298,-5.73107376167247,1.00979480182237e-08,-0.699999999999875,0.248165645813251,-2.8206966266662,0.00479584066245021,-0.739259259259212,0.274156820656008,-2.69648319341571,0.00701243206422501,-0.702222222222079,0.334538551048244,-2.09907713183349,0.035820413790088,0.782962962962911,0.423383461192579,1.84929983036531,0.0644266917119763,-0.46962962962945,0.285812780465874,-1.6431372623154,0.100367501780627,-0.545925925925927,0.17920207148721,-3.04642642462361,0.00231827944982418,-0.45185185185183,0.162918920791351,-2.77347682919232,0.00555031621856189
"25",-1.20296296296311,0.142996949758366,-8.41250785415951,4.23173357356169e-17,-1.31462962962976,0.194003451607102,-6.77632082697252,1.26098537129225e-11,-0.282407407407174,0.287596988132219,-0.981955371790406,0.32613163168635,2.49222222222293,0.360808139863722,6.90733369586465,5.06051457961182e-12,-0.204259259259039,0.289012422836283,-0.706749063775523,0.479729224362655,-0.904629629629665,0.199415852945623,-4.53639776510817,5.74974120846837e-06,-0.967407407407513,0.147031606740425,-6.57958808214217,4.8137087541538e-11,-0.892962962962677,0.195974072896211,-4.55653622831831,5.22575378989102e-06,-0.772592592592295,0.226272776008659,-3.41443016796121,0.000640201743571255,-1.18925925925904,0.299536739184622,-3.9703285229597,7.19805242829161e-05,0.92222222222301,0.401207465567546,2.29861680394815,0.0215351722336034,0.0174074074074738,0.259893475327165,0.0669790089403384,0.946598966301357,-1.15148148148159,0.153966704122679,-7.47876943942436,7.75656254613337e-14,-1.05481481481493,0.13510070466957,-7.8076188972871,6.06261296843752e-15,-1.20092592592599,0.231967716030824,-5.17712527620183,2.27128365983228e-07,-1.36444444444457,0.254410978988817,-5.36315079588035,8.25309136420938e-08,-1.76481481481493,0.308479167221944,-5.72101782661123,1.07134007692428e-08,1.71777777777792,0.391462487241012,4.38810316126237,1.1482596170925e-05,-0.179259259259195,0.250628790654749,-0.715238096911744,0.474468818206244,-0.840000000000169,0.158558517988489,-5.29772862824785,1.18274820519333e-07,-0.527962962963039,0.146289572909311,-3.60902662071711,0.000307966670806124
"26",-0.245925925925901,0.143952904684937,-1.70837765631855,0.0875790883381458,-0.162962962962889,0.198133339164099,-0.822491377021202,0.410805379882862,0.317777777778173,0.315699173628347,1.00658412920736,0.314144708335946,0.869629629630132,0.39033731583695,2.22789263118618,0.0258968124323794,0.0237037037040545,0.325319689726657,0.0728628006622381,0.941915896946976,-0.285925925925851,0.219805221095617,-1.30081498747235,0.193334151572595,-0.314814814814794,0.155640910176869,-2.02269965176278,0.0431150759926412,-0.242962962962492,0.213557630008937,-1.13769272936923,0.255260051364713,-0.183703703703242,0.248603587875159,-0.738942286687723,0.459949195462367,-0.262962962962534,0.319684875920329,-0.822569294857944,0.410761054126042,-0.045185185184056,0.436886508615958,-0.103425453276644,0.917626166956613,-0.241481481481386,0.284935595196099,-0.84749496220433,0.396727658378808,-0.662962962963001,0.155275892228334,-4.26958076652435,1.96584942300786e-05,-0.541481481481511,0.134754450564043,-4.01828272992117,5.88007115727597e-05,-0.277777777777628,0.237473597579716,-1.16972067888255,0.242124890461385,-0.192592592592544,0.262868186742505,-0.732658428466281,0.463773866716809,-0.142222222222063,0.322935496926618,-0.440404426195306,0.659648145328912,0.492592592592486,0.419646161911984,1.17382842332727,0.240475285227963,-0.345185185185109,0.28400462119092,-1.21542101581883,0.22421738964408,-0.206666666666666,0.168688150170874,-1.2251403934261,0.220534228077562,-0.0637037037036986,0.151582715278577,-0.420257043071332,0.674301411116058
"27",-0.442407407407382,0.136896297142539,-3.23169739899348,0.00123221543814552,-0.414259259259199,0.185295792174647,-2.23566468724096,0.0253828072080607,0.28722222222253,0.283331967933064,1.01373037542444,0.310721540284786,2.69944444444481,0.361428706365507,7.46881583256118,8.36489961742069e-14,0.044814814815051,0.284177620617411,0.157700014229429,0.874694502338341,-0.429999999999963,0.194852515338998,-2.20679727563108,0.0273375603048874,-0.471481481481467,0.143732734411293,-3.2802651630652,0.00103855833533843,-0.198518518518252,0.19119435796847,-1.03830740942152,0.299137313291239,-0.0542592592590314,0.2189420218856,-0.247824783893621,0.804272076558425,-0.900740740740447,0.28656956716522,-3.1431835196273,0.00167322393072537,1.35074074074145,0.39997065500664,3.37709960426729,0.000733696002749175,-0.541851851851857,0.257063468780283,-2.10785240867884,0.0350539929005578,-0.927592592592645,0.143906751544808,-6.44578925335424,1.17162227039096e-10,-0.543333333333367,0.126882684326166,-4.28217085900127,1.85790044693194e-05,-0.30185185185171,0.225028731532552,-1.34139249595354,0.17980561504689,-0.472777777777765,0.246830244626331,-1.91539646404957,0.0554537105261369,-0.559999999999884,0.298203203868732,-1.87791409594108,0.0604049086178954,1.87129629629629,0.389937945553799,4.79895921295537,1.60441129347083e-06,-0.530925925925836,0.248427776759427,-2.13714397339705,0.0325962578203283,-0.209074074074091,0.150775339964487,-1.38665960974345,0.165558329551431,0.084444444444436,0.137833594384055,0.612655026677623,0.540110210666077
"28",0.827777777777766,0.173984415811784,4.75776967675802,1.9687014503881e-06,0.989629629629696,0.221548885077284,4.46686802005111,7.9731538740377e-06,1.22222222222282,0.320234893858498,3.81664286329421,0.00013561573216947,2.71962962962975,0.405464114388254,6.7074484106516,2.02413901430241e-11,2.51462962962972,0.337920449050926,7.44148404363288,1.02869626871618e-13,2.14666666666654,0.249800776033279,8.59351480309478,8.93517348791868e-18,1.75574074074063,0.189652732066759,9.25766120850075,2.25753050262957e-20,0.10814814814814,0.253208470374601,0.427111099356762,0.669302201106628,0.201481481481845,0.275712035171542,0.730767814892403,0.464928046049103,-0.176296296295833,0.320680272727394,-0.549757223281707,0.582490965329992,-0.13037037037013,0.453323659012637,-0.287587836589168,0.7736647142792,0.814629629629751,0.290808847153328,2.80125463033193,0.00509446500220159,1.2003703703703,0.177783561184923,6.75186368396414,1.49253812227934e-11,1.31851851851849,0.158508875362743,8.31826303417457,9.39023083936984e-17,1.36574074074017,0.276473667676223,4.93985829543659,7.86994279229542e-07,1.34240740740661,0.295109878408458,4.54883928198634,5.42038327790924e-06,0.2716666666662,0.32600267776198,0.833326488393288,0.404668829096125,-0.91611111111107,0.440807587340895,-2.07825622203414,0.0376962580294853,0.170740740740808,0.297531319477526,0.573858043047818,0.566069189629909,0.0933333333333863,0.18755987873616,0.497618861572618,0.618757219143733,0.501851851851942,0.168333321111732,2.98129834626643,0.00287313972081132
"29",0.765555555555608,0.172274342218561,4.4438164482112,8.87683201815739e-06,1.25129629629649,0.216240243743537,5.78660232079899,7.27081904549545e-09,1.59240740740817,0.292735143874875,5.4397548115672,5.38697849759787e-08,0.472407407407641,0.372677972243899,1.26760217289815,0.204952227505057,2.89111111111127,0.314935783520643,9.18000196354876,4.64553111671707e-20,2.89296296296287,0.244063532596129,11.8533192246712,2.54048784867185e-32,2.07111111111098,0.186626515976242,11.0976251165437,1.50927274050965e-28,0.78203703703706,0.243836169809225,3.20722326654375,0.00134196873381927,0.907962962962797,0.265572397231294,3.41889056403715,0.00062980409347488,-0.291666666666683,0.313691315498264,-0.929788783611693,0.352489710468442,0.870925925925982,0.38623798009294,2.25489457488466,0.0241488280513808,0.38944444444458,0.275618703039417,1.41298264649654,0.157673661641021,1.26851851851847,0.17519769153925,7.24049790481564,4.60362424829841e-13,1.42111111111106,0.157695969976025,9.01171482902905,2.17460700488186e-19,1.47944444444383,0.266450017717971,5.55242764520951,2.84679662016547e-08,1.35055555555474,0.284710770777938,4.74360542056246,2.11142040905922e-06,0.556851851851353,0.306934921214111,1.81423426714911,0.069654019185192,-1.30888888888879,0.391283782711319,-3.34511407505602,0.000823734615161768,0.344259259259275,0.272960454498494,1.26120562002938,0.207246907432602,0.524074074073995,0.186582019552613,2.8088133858269,0.00497642252488225,0.700740740740669,0.174902735062674,4.00645959303935,6.18195668411634e-05
"30",1.25351851851859,0.169818718353311,7.38150971031721,1.6154121217628e-13,1.35388888888907,0.222141076031722,6.09472553691838,1.11278554966343e-09,1.53018518518574,0.321278305940082,4.76280270685666,1.92025712421839e-06,2.61203703703727,0.396212209269764,6.59252031089948,4.41306320897698e-11,1.99259259259289,0.334209383609663,5.96210845749359,2.52448279170834e-09,2.29000000000011,0.243328804424218,9.41113406371626,5.33017273102444e-21,1.93425925925933,0.1829453041231,10.5728827997564,4.53658993631468e-26,0.834444444444612,0.235924145613934,3.53691836955975,0.000405580300621693,1.18185185185245,0.26169461216837,4.51614896485551,6.32710009179543e-06,1.31314814814872,0.30921510571676,4.24671409601692,2.17736130489063e-05,1.20240740740767,0.449312731705341,2.67610357455041,0.00745336746036056,1.5192592592595,0.28435408567343,5.34284308122905,9.23248524071731e-08,1.67074074074083,0.174830361320585,9.55635353105064,1.33151299649161e-21,1.5125925925927,0.155149248845159,9.7492743526093,2.04275352030446e-22,1.68481481481494,0.259384480311278,6.49543416318915,8.43985459343854e-11,1.60833333333324,0.279452124805964,5.75530901563185,8.75253520550571e-09,0.325740740740745,0.31733251535945,1.02649657685337,0.304667815589492,-0.0677777777776703,0.42780538713085,-0.158431333070005,0.874118244634196,1.26000000000019,0.284579520615926,4.42758494101448,9.57101177281052e-06,0.978888888889037,0.168101340467744,5.82320691890539,5.84571463927885e-09,1.28722222222244,0.152627808855452,8.43373322250544,3.53213820809267e-17
"31",1.47685185185194,0.170461232753049,8.66385762909208,4.84024637082737e-18,1.89388888888913,0.219472847471985,8.62926284824768,6.5473491809726e-18,1.89611111111178,0.2978064268904,6.36692475347281,1.96309422110819e-10,1.10500000000035,0.362738893803251,3.04626831827883,0.00231949846880869,2.09018518518547,0.312035691473545,6.6985452058861,2.15111122844461e-11,3.00537037037046,0.238041544950413,12.6254027253794,1.99185270593807e-36,2.31777777777773,0.179765824221159,12.8933171130807,6.54048439882737e-38,1.7185185185187,0.227338116055559,7.55930658851202,4.1956524882316e-14,1.81999999999999,0.252531299625611,7.20702741679238,5.88595133418047e-13,-0.380370370370379,0.300335436923696,-1.26648514829443,0.205351608503441,2.05037037037038,0.382917844925973,5.35459602507363,8.65274341317282e-08,1.46481481481504,0.26906128076983,5.44416800003314,5.25528830186514e-08,1.60814814814819,0.171428601591196,9.38086254698104,7.0987866455119e-21,1.69870370370376,0.154978816816646,10.9608767094504,6.8515363084347e-28,2.15444444444451,0.250555656982232,8.59866614225876,8.54431789330366e-18,2.24018518518508,0.272037034650834,8.23485371416585,1.88750689430955e-16,1.46203703703705,0.305731399108898,4.7820964457638,1.74494557409328e-06,0.471296296296496,0.386191449526331,1.22036957802807,0.222336671823475,1.4461111111112,0.258394417315408,5.59652614067898,2.21051284420519e-08,1.58592592592591,0.168185486671509,9.42962414481968,4.47238360990534e-21,1.78722222222223,0.160182581294266,11.157406802797,7.74547819121884e-29
"32",-3.0453703703703,0.174844249669918,-17.4176181150913,1.5638829894833e-67,-2.62629629629609,0.223398155022444,-11.7561234829009,8.0144107855924e-32,0.0635185185189742,0.319585642180723,0.198752728957251,0.842457841271719,2.94870370370381,0.392162961824223,7.51907750285069,5.70752144373132e-14,0.540555555555654,0.3283553848556,1.64625153259896,0.0997249425501294,-2.11777777777775,0.23896331299857,-8.8623552762278,8.36085328285563e-19,-2.8718518518518,0.184232613327955,-15.5881838724156,1.61147916220269e-54,-6.05981481481461,0.255761951988788,-23.6931833202471,1.0515160875298e-122,-4.04703703703652,0.280971852478478,-14.4037098425954,7.65623573849134e-47,1.32148148148157,0.315386472390104,4.19003856274158,2.79893630003742e-05,3.81203703703657,0.432802531304359,8.80779746261661,1.35996310243666e-18,1.80277777777768,0.285983486055034,6.3037827905586,2.95468994804085e-10,-1.2577777777778,0.175366656856563,-7.17227436688016,7.58787476838297e-13,-2.21055555555553,0.157851835441172,-14.0039901935721,2.19483296325712e-44,-5.94166666666652,0.27781064727564,-21.3874692166542,1.48522991726074e-100,-3.8183333333335,0.295299391716596,-12.9303799480834,4.05484213803634e-38,1.33981481481454,0.319203920792318,4.19736327639365,2.71002173079819e-05,3.58537037037034,0.423862590515464,8.45880351462519,2.8516350671533e-17,1.52777777777788,0.28805840881101,5.30370831417121,1.14467738468899e-07,-1.01370370370363,0.182390640515186,-5.55787128572112,2.75955382065791e-08,-1.92740740740729,0.164306525744188,-11.7305590796077,1.08253352503303e-31
"33",-2.98740740740719,0.173874207025606,-17.181429370759,8.97211482242914e-66,-2.29018518518477,0.220707364409912,-10.3765689527754,3.57867196622887e-25,0.65185185185247,0.298666106240458,2.18254377792591,0.0290789843173167,2.84722222222247,0.358968893441899,7.9316683819661,2.25500398625509e-15,1.05444444444454,0.307233877801665,3.43205785764694,0.000600019018153599,-1.84148148148136,0.233260167025814,-7.89453898177812,3.03661902740941e-15,-2.79462962962949,0.180880759339925,-15.4501210622275,1.35642125192287e-53,-4.56092592592558,0.246215645737012,-18.5241108958494,4.42374421757722e-76,-0.987777777777828,0.271895454502891,-3.63293229592158,0.000280796684533541,4.70499999999959,0.305738353926204,15.3889753757725,3.46401425545819e-53,6.15962962962882,0.376835761401404,16.3456610559517,9.75125677384936e-60,2.76888888888873,0.269139817748736,10.2879199073907,8.98277791897611e-25,-0.661296296296334,0.172378405097358,-3.83630592197925,0.000125215072622302,-1.90129629629626,0.157481610914365,-12.07313212798,1.82701230717868e-33,-5.00203703703677,0.266664907077025,-18.7577626612562,5.96504518508594e-78,-2.0498148148149,0.284727282386819,-7.19922164687437,6.23212512242053e-13,3.83351851851832,0.303878754263071,12.6152896993898,2.26290324045242e-36,7.17907407407395,0.377891411763346,18.9977169382453,6.78317344147619e-80,2.31222222222224,0.263575705394458,8.77251649108497,1.85985961875869e-18,-0.0766666666667097,0.181419023723945,-0.422594417569841,0.672594947308071,-1.45148148148156,0.171009554420069,-8.48772155686773,2.22614630960361e-17
"34",0.609444444444463,0.132737321098987,4.59135712095604,4.42583071284061e-06,0.952592592592689,0.180294195553961,5.28354553881121,1.27801146311458e-07,1.43166666666714,0.303938110419163,4.71038878504811,2.48613774257953e-06,2.14296296296319,0.413647680700668,5.18064783859848,2.22885087929421e-07,1.51888888888902,0.312570984695961,4.85934064022753,1.18512644439009e-06,1.01888888888885,0.199689784902479,5.10235858777872,3.37975508153526e-07,0.539629629629579,0.139850299807688,3.85862333060165,0.000114322645059553,0.261851851852034,0.199491402233035,1.31259717923158,0.189331143466279,2.23203703703756,0.229108936695136,9.7422521759054,2.18840161256976e-22,5.05981481481505,0.304927502457437,16.5935009929822,1.69646117909011e-61,0.7466666666663,0.460774543935394,1.62045988975248,0.105146526458723,0.771111111111106,0.27136060874747,2.84164718921569,0.00449185602945084,-0.247777777777817,0.144777397196655,-1.71143964856099,0.0870127712347635,0.192777777777751,0.12254433501014,1.57312680151065,0.115702506455298,-0.237777777777718,0.225941055439421,-1.05238854140641,0.292631810298305,1.8335185185183,0.244894259239675,7.48698039803317,7.28764576337585e-14,4.33314814814798,0.307992762109745,14.068993434995,8.8381661631549e-45,-0.471481481481423,0.443822296068496,-1.06232040539184,0.288100833301973,-0.34037037037023,0.277166047743208,-1.22803775260951,0.219444715796678,0.265370370370446,0.148426815646415,1.7878869745654,0.0738067272234847,0.933148148148214,0.128888923175896,7.23994060276801,4.62253971285346e-13
"35",0.594259259259351,0.132953299723157,4.46968417103414,7.86898259333924e-06,0.962037037037276,0.176564785840988,5.44863480254594,5.12517774379142e-08,1.10388888888953,0.277556415327966,3.97716942548474,6.99428568989358e-05,1.82407407407445,0.377825622819563,4.8278199357209,1.38876233766621e-06,1.18462962962976,0.286815945325338,4.13027814156573,3.63538088340499e-05,0.963148148148122,0.193886390569707,4.96759027448009,6.82508173709947e-07,0.594629629629577,0.136834879180924,4.34559984405257,1.39460181029178e-05,1.91870370370386,0.191082923862104,10.0412096744369,1.11730709776943e-23,4.39685185185181,0.220054047001261,19.9807815932902,4.14615000076522e-88,5.21685185185155,0.294118558184277,17.7372413493982,5.98718143001306e-70,2.01166666666602,0.395131076968279,5.09113755896126,3.58582397160642e-07,0.500370370370325,0.253585416146797,1.97318275622233,0.0484860820373785,0.237407407407348,0.140912210011745,1.68478946847516,0.0920420657454825,0.436111111111078,0.121718060339419,3.5829613936909,0.000340386279903675,1.4992592592593,0.216924773282977,6.91142480671639,4.91694929060735e-12,3.40111111111094,0.236145437626081,14.4026119890419,7.777801663449e-47,4.58592592592578,0.287690513488788,15.9404836479063,6.45940807733401e-57,4.01111111111109,0.396102662993625,10.1264431821698,4.70844191773065e-24,-0.0818518518517795,0.250438330695133,-0.326834361276032,0.743795989786922,1.07166666666662,0.146033179219164,7.33851493473465,2.22767276997012e-13,1.14333333333323,0.136313553176233,8.38752498700606,5.23175088768447e-17
"36",-2.252037037037,0.153521679045454,-14.6691793044436,1.63972251568024e-48,-1.40574074074053,0.208830403630973,-6.73149463056461,1.71675905213871e-11,4.98888888888939,0.329184155895053,15.1553129139055,1.20540060534441e-51,12.6972222222224,0.42128066821322,30.1395795731031,6.02485992952954e-196,5.55148148148173,0.336044780355188,16.5200646045268,5.66993348815582e-61,-0.692407407407315,0.227228221294265,-3.04718931241658,0.00231240573524814,-1.88666666666665,0.163667839128299,-11.5274123292341,1.15388016921468e-30,-4.06777777777763,0.234165920350529,-17.3713483656737,3.47189823408729e-67,-2.10037037036984,0.26850951172929,-7.82233134626316,5.39585780112956e-15,2.23277777777828,0.325601811845479,6.85738744856213,7.181518303522e-12,10.3742592592592,0.467877036099806,22.1730464605367,7.38423457462249e-108,3.69518518518535,0.2823262294041,13.0883524105596,5.2054197108812e-39,-0.66925925925918,0.163772860430411,-4.08650894598959,4.39321059209604e-05,-1.61833333333332,0.140770797239894,-11.4962290834756,1.65336029607594e-30,-3.5107407407406,0.259319348993537,-13.5382907382978,1.31652116712077e-41,-1.6216666666667,0.282847009008027,-5.73337039113139,9.9622851655561e-09,2.7879629629631,0.330361985929329,8.43911552087441,3.37369846754294e-17,10.8962962962963,0.451312176618562,24.1435903146607,2.77358358571377e-127,4.24481481481492,0.288486003885522,14.7141100699615,8.49795548447377e-49,-0.453703703703564,0.170671869488758,-2.65833909866119,0.00785783637100989,-0.837962962962814,0.150228437913069,-5.57792502274243,2.45999451102411e-08
"37",-1.73370370370351,0.154140299659162,-11.2475693088512,2.81336606575536e-29,0.470000000000312,0.206036207478174,2.28115245253726,0.022548058052255,8.62481481481529,0.302466214741396,28.5149692576057,6.1090157830493e-176,15.6477777777777,0.383352952406906,40.8182007717227,0,9.442962962963,0.311247782783194,30.3390529517144,1.7895798448767e-198,1.31000000000002,0.223028834723821,5.87367997336401,4.31786566880073e-09,-1.3237037037037,0.161747245570176,-8.18377895115006,2.8846851462142e-16,-4.20203703703675,0.227368551848982,-18.481170781383,9.70563211464937e-76,-0.952037037037037,0.260152478368289,-3.65953475826307,0.000253209325075447,6.66574074074053,0.320730016845617,20.7830274393964,4.16188896568768e-95,16.4124074074067,0.399126082800138,41.1208590835824,0,7.2907407407407,0.267852404658467,27.2192469208442,1.0003404535616e-160,0.896481481481493,0.161480212408075,5.55164913466924,2.85949017815414e-08,-1.16037037037032,0.141867116096676,-8.17927651098221,2.99422269403821e-16,-4.455185185185,0.251461238685809,-17.7171845985837,8.51417228643656e-70,-1.20092592592585,0.274204949750599,-4.3796653817451,1.19359492013852e-05,7.4755555555556,0.31376338580088,23.825455403199,4.84905644702598e-124,16.6188888888886,0.400330621240001,41.5129095981031,0,8.06240740740719,0.261725445959465,30.8048282346068,1.95757287451622e-204,1.76888888888884,0.171193513109508,10.3326864246154,5.64924816532332e-25,-0.381851851851844,0.159042554248833,-2.40094139367513,0.0163604385490299
"38",-1.97444444444422,0.146702783835216,-13.458806934857,3.84082919699572e-41,-1.03685185185163,0.198807346738507,-5.21535983886656,1.84966568518039e-07,4.58629629629643,0.323687569065196,14.1688984521141,2.16642476445942e-45,11.7433333333325,0.422061376409129,27.823757372077,9.64777214358284e-168,4.86129629629616,0.331316856399004,14.6726500701845,1.55865514669648e-48,-0.678148148148055,0.221936096903323,-3.0556009482471,0.0022485395801224,-1.75944444444436,0.159169293045388,-11.0539188230398,2.45257050656298e-28,-3.56740740740708,0.225661465621838,-15.8086689616087,5.16593371926517e-56,-2.1624074074068,0.25775325561014,-8.38944750586396,5.14715024408272e-17,1.34018518518553,0.314566904779629,4.26041380966125,2.04817839071592e-05,9.75388888888811,0.468033126267366,20.8401678032425,1.29042257319012e-95,2.68092592592578,0.279411344386742,9.59490722114358,9.18147725816306e-22,-0.141296296296277,0.15281492264476,-0.924623681057254,0.35517089137571,-1.09999999999992,0.132810338664576,-8.28248772693869,1.26791389607593e-16,-3.03870370370349,0.249559150120244,-12.1762864725231,5.22650583380281e-34,-1.65148148148144,0.271896316709299,-6.0739384095708,1.26667712289318e-09,2.25777777777769,0.321979670835135,7.01217493614293,2.40797337581728e-12,11.0598148148142,0.45216390372572,24.4597472812049,1.51402840134139e-130,3.21481481481467,0.286774593491074,11.2102497493898,4.282459459188e-29,0.16203703703713,0.163225982619428,0.99271595389889,0.320858303431703,-0.731296296296122,0.141734840510746,-5.15960855962352,2.49414945694267e-07
"39",-1.38166666666647,0.147629148029585,-9.35903705404829,8.72297657368087e-21,0.53851851851883,0.196435733968025,2.74144885780552,0.00612137024620056,8.12037037037081,0.297734643459578,27.2738512254227,2.3570298444442e-161,14.8262962962962,0.384314062965461,38.578594241108,4.74334284481666e-316,8.72500000000003,0.306098414548779,28.5039045787336,8.29255073143456e-176,1.25777777777777,0.216877443021426,5.79948638389983,6.73440444341243e-09,-1.10074074074074,0.157056343377678,-7.0085723191311,2.47065644992416e-12,-4.24907407407384,0.218759067599584,-19.4235334822844,2.10207750411223e-83,-1.69722222222226,0.250892704739328,-6.76473325115467,1.36593619386875e-11,5.29277777777758,0.307865970111864,17.1918246627077,7.51587881361926e-66,15.4833333333327,0.399424162674742,38.7641379270813,5.48254765877114e-319,7.05851851851837,0.262878804129099,26.850846883235,1.60235895571128e-156,1.26074074074073,0.149952278085991,8.40761312087403,4.41153162434917e-17,-0.86425925925925,0.132604347558956,-6.51757861012063,7.28545732666543e-11,-4.25592592592583,0.242865301474108,-17.5238121711658,2.48822555213416e-68,-1.7583333333333,0.265987541550327,-6.61058530442713,3.90753839393862e-11,6.21222222222226,0.304366729044154,20.4103196224219,8.00813074383072e-92,15.1974074074073,0.398940516891884,38.0944195034617,1.91321984675606e-308,7.98462962962944,0.260613582704637,30.6378107647549,2.74705516717069e-202,1.72888888888886,0.161329286431456,10.7165222578692,9.7734547675194e-27,-0.463518518518546,0.150466092543478,-3.08055131015387,0.00206848974847353
"40",-0.382777777777745,0.158990901084438,-2.40754518130856,0.0160675951406925,-0.34259259259255,0.200111666431361,-1.71200709434929,0.0869081472086681,0.180370370370959,0.277966384713779,0.648892744914771,0.516413849688815,0.620000000000225,0.343861924213238,1.80304929491334,0.0713928824558749,-0.191851851851455,0.294857061246082,-0.650660530362333,0.515271811947834,-0.63370370370355,0.221576308638278,-2.85997951494926,0.00424030039614881,-0.774999999999908,0.171532198861046,-4.51810217058848,6.26907696569719e-06,-0.405555555555288,0.221779149355552,-1.82864600542366,0.067464932534179,-0.139444444444334,0.242748169735396,-0.574440765490977,0.565674902314134,0.0451851851853418,0.28749963518492,0.157166060945707,0.875115283794399,0.275740740740768,0.378096609711226,0.729286467158135,0.465833492379306,-0.196296296296254,0.268447273722225,-0.731228496287025,0.464646662749987,-0.613148148148133,0.164940149745453,-3.71739779001283,0.000201738073830618,-0.649074074074015,0.146885280690526,-4.41891843091858,9.96259437355245e-06,-0.714814814815489,0.242788696721044,-2.94418490015944,0.00324113615593109,-0.447777777778695,0.259577059959175,-1.72502831278357,0.084535111978682,0.466851851851225,0.288135719113808,1.62024983673346,0.105191622763097,0.350925925925912,0.37421468949941,0.937766303068831,0.348373861490966,0.269814814814835,0.266385871020839,1.01287209333159,0.311131365664365,-0.379814814814785,0.176020738868066,-2.15778445913393,0.0309543813570637,-0.380740740740706,0.160527065155203,-2.37181649320377,0.0177086412292276
"41",-0.791666666666687,0.156327796346498,-5.06414524587791,4.13241055469344e-07,-0.610000000000011,0.202254605207649,-3.016000547299,0.00256398057168508,0.242222222222593,0.279065793066308,0.867975324245634,0.385416430837872,1.13537037037074,0.3367693983111,3.37135849060107,0.0007491522232906,-0.0570370370367224,0.289302171769624,-0.197153850203869,0.843708796316204,-0.938888888888809,0.215275263348422,-4.36134126274054,1.29800342227966e-05,-1.04814814814812,0.164857987422917,-6.35788513819028,2.0819300226059e-10,-0.843518518518202,0.207835923834431,-4.05857901250111,4.95269424803318e-05,-0.427592592592397,0.230780977381434,-1.8528069230146,0.0639221788525889,0.254074074074248,0.277951636622817,0.914094542350289,0.36067625874053,0.313148148147959,0.376692783477236,0.831309124792096,0.40580720658662,-0.169259259259248,0.262657271245463,-0.644411093044016,0.519314988573603,-0.814814814814859,0.161246820026586,-5.05321478389785,4.37589846030753e-07,-0.869444444444454,0.143301766297769,-6.06722768955843,1.3206496976649e-09,-1.21500000000004,0.22819685840847,-5.3243502494903,1.02215661332254e-07,-0.776481481481691,0.247079693874733,-3.14263575976163,0.00167635663611424,0.56814814814813,0.281485962494182,2.01838892111671,0.0435617600127953,0.529074074074201,0.367752048052558,1.43867063929604,0.150256768183771,0.351296296296351,0.25488000646931,1.37828110240044,0.168129231751667,-0.50000000000001,0.160582859227444,-3.11365735051352,0.00184999010265505,-0.642592592592595,0.149425574074195,-4.30041909876501,1.7114126241967e-05
"42",-0.0427777777777707,0.1223588466734,-0.349609194110445,0.726635046005525,-0.179259259259238,0.168303403091468,-1.06509586833378,0.286843153863386,-0.172962962962359,0.26791905280512,-0.645579182038129,0.518558031533892,-0.316296296296006,0.363582207996942,-0.869944373897047,0.38433941509743,-0.182962962962647,0.284078704004381,-0.644057299556766,0.519544369963538,0.0150000000000719,0.190170862512301,0.0788764367049216,0.937131556460851,-0.139259259259232,0.133915797115679,-1.03990165655316,0.2983959610491,0.091296296296487,0.175727635891683,0.519532945590649,0.603393886526054,0.136666666666726,0.197597495409932,0.691641695069062,0.489168992238602,-0.299814814814653,0.285268242626961,-1.05099260981081,0.293272457489144,-0.639074074074128,0.404792173445277,-1.57877082611263,0.114401676160049,-0.203518518518466,0.256514394004149,-0.793399993433408,0.427552577658181,-0.138518518518535,0.137757450336934,-1.00552469706531,0.314654296876874,-0.0785185185185091,0.116687902584673,-0.67289339151103,0.501021528993591,-0.0683333333340643,0.197851440358662,-0.345376981892023,0.729813975357305,0.0485185185175348,0.218505615957433,0.222047009203583,0.824279158504405,0.152222222221627,0.284612262032777,0.534840702696415,0.592764918781137,-0.287592592592643,0.393952022339899,-0.730019333025558,0.465385419324251,0.127962962963001,0.257351768320649,0.497229779294015,0.619031531987137,0.00333333333333471,0.146415048558614,0.0227663301426307,0.981836853035803,0.0872222222222153,0.130722220537941,0.667233327763889,0.504629455111435
"43",-0.0718518518518623,0.124203377868848,-0.578501592184825,0.562930895406211,-0.176666666666672,0.170050323269265,-1.03890814948308,0.298857814668648,-0.149259259258896,0.270047833095593,-0.552714152703681,0.580464255405981,-0.201111111110753,0.355552520420077,-0.565629828395379,0.571650679870426,-0.172407407407137,0.279899401861399,-0.615962043007544,0.537925353131295,-0.0479629629629167,0.187819554674753,-0.255367248878713,0.798441629817807,-0.0759259259259133,0.130313489820583,-0.582640569525451,0.560140706131439,0.163703703703956,0.162709813880496,1.00610835818539,0.314373487763516,0.402222222222352,0.189939167041454,2.11763707553044,0.0342159643480783,-0.450185185185026,0.276327206611889,-1.62917430644941,0.103289113959952,-1.07981481481507,0.401030535255775,-2.69259998899178,0.00709459750117334,-0.194444444444372,0.252006635114486,-0.771584622587563,0.440368003518705,-0.126296296296342,0.137696750986865,-0.917206073427177,0.359043786787455,-0.0548148148148125,0.115107914669006,-0.476203699566907,0.633933554481014,-0.0885185185185565,0.185067514165636,-0.478303925557308,0.632438214808523,0.212777777777522,0.206686030349478,1.02947343571185,0.303267524458142,-0.0437037037037175,0.278780738228858,-0.156767300285431,0.875429549853144,-0.931111111111064,0.385791501409147,-2.41350861206137,0.0158071180362199,0.125370370370432,0.247249446128611,0.507060267812362,0.612117143005102,0.0537037037036982,0.135235992141399,0.397111026830395,0.691289083856483,0.127037037037016,0.124719181605568,1.01858459461976,0.308410383162475
"44",-0.246111111111084,0.142729754478812,-1.72431538195927,0.0846636681788661,-0.159259259259248,0.19163306105245,-0.83106358779949,0.405945891042593,-0.0942592592586306,0.287318653273294,-0.328065227178175,0.742865177444605,0.353333333333699,0.369695534001007,0.955741416483372,0.3392124201131,0.432037037037256,0.302935717534144,1.42616737489386,0.153832907950632,-0.51074074074062,0.215534399371384,-2.36964838202263,0.0178127914705028,-0.628518518518456,0.156393912300835,-4.0188170324012,5.86676384372825e-05,-0.39944444444438,0.203877634677686,-1.95923621085691,0.0500965710863792,-0.468148148148154,0.230733458894922,-2.0289564868065,0.0424736251980385,-0.519074074073868,0.308032263940541,-1.68512891290525,0.0919765697227949,0.422962962963435,0.409765331332081,1.03220777997116,0.301985085684756,0.318518518518699,0.267887891951034,1.18899930937125,0.234451581689496,-0.541111111111064,0.156179961086067,-3.46466414351885,0.00053181141210722,-0.573703703703645,0.134697653113729,-4.25919598776714,2.05935964801038e-05,-0.545555555556229,0.228331864075451,-2.38930977840199,0.0168876569171574,-0.463888888889784,0.251500337867971,-1.8444861459125,0.0651245119234352,-0.155370370371005,0.305860153402365,-0.50797846219155,0.611473068222221,0.763148148148087,0.400967490276459,1.90326688984663,0.0570175582674389,0.321851851851927,0.267810735660006,1.20178846101423,0.229457233742796,-0.567777777777761,0.169393351551695,-3.35183035565885,0.000804018451815673,-0.508518518518495,0.152641122590628,-3.33146474480737,0.00086519278340139
"45",-0.624074074074074,0.14097247610739,-4.42692141974342,9.6004644317405e-06,-0.640370370370385,0.192762793963559,-3.32206416603115,0.000894862156646116,-0.123703703703316,0.289299011894094,-0.427598085777774,0.668947556856905,0.768333333333789,0.362075750055062,2.12202372905931,0.0338458551457137,0.61796296296323,0.298962016579263,2.0670283470589,0.0387420702368186,-0.761111111111064,0.209024575381603,-3.64125179884494,0.000271880190325844,-0.868518518518544,0.149974482178221,-5.79110863331035,7.07864079219671e-09,-0.839814814814765,0.190404059866537,-4.41069804605757,1.03481265500637e-05,-1.17592592592597,0.220200785740269,-5.34024400491011,9.36567802696418e-08,-1.159074074074,0.294570424033454,-3.93479446511699,8.34999579148142e-05,0.449814814815085,0.407884004572283,1.1028008202645,0.270124616273564,0.492962962963171,0.261585967730948,1.88451608180377,0.0595071513246623,-0.888333333333369,0.154110701283894,-5.76425469440265,8.30136211322112e-09,-0.791111111111122,0.132170960827658,-5.98551380845809,2.18737931404627e-09,-0.697037037037107,0.212023430273222,-3.2875472118288,0.00101207955034416,-0.809259259259465,0.237131472572773,-3.41270287945904,0.000644270953094251,-0.722777777777879,0.298862823709097,-2.41842651691401,0.0155951103987354,1.17925925925943,0.39365080478552,2.99569883999589,0.00274093380091642,0.827037037037159,0.257139512111988,3.21629698308276,0.00130026669545869,-0.864814814814866,0.153433610718704,-5.6364105020012,1.75559186737659e-08,-0.737407407407462,0.140090764566182,-5.263783160089,1.42321503133053e-07
"46",0.14000000000001,0.134345405442456,1.04208997351961,0.297380355826293,0.377962962962971,0.18069979862201,2.09166233634603,0.0364791082664037,0.00833333333396523,0.283721480717626,0.0293715277140366,0.97656852230847,-0.390740740740489,0.370622107911233,-1.05428341267239,0.291763685041296,0.294814814815,0.299088403455254,0.985711286058293,0.324284644532502,-0.0279629629628507,0.209064537440231,-0.133752779429869,0.893599178080031,-0.201851851851791,0.149509833376365,-1.35009080870061,0.176999457467316,-0.165925925925881,0.197346736949533,-0.840783731672814,0.400477392902735,-0.239629629629648,0.221999978655768,-1.07941284985985,0.280414461289196,-0.513888888888705,0.292303832862138,-1.75806414803693,0.0787492096948104,-0.304629629629185,0.40802019962128,-0.74660428555238,0.455309699069798,0.103333333333468,0.263715778997232,0.391835989967642,0.695182844327905,-0.071666666666637,0.146330259375756,-0.489759718682701,0.624308368369667,-0.0688888888888487,0.125324064835218,-0.549686039783556,0.582539795928545,-0.220370370371058,0.219081051474331,-1.00588512282578,0.314480870555734,-0.0259259259268272,0.24188488597409,-0.107182909847473,0.914644759983401,-0.0150000000005859,0.294427048792203,-0.0509464061203577,0.959368646385122,0.0812962962962824,0.399793592423374,0.203345670958606,0.838866567089904,-0.23018518518511,0.265956128011236,-0.865500588034523,0.386772655789482,0.000740740740764328,0.159312194556237,0.00464961733047276,0.996290193733282,-0.00444444444441858,0.141308972705094,-0.0314519620328283,0.974909360765246
"47",0.0733333333333413,0.135108785781443,0.542772499280456,0.587291438576881,0.302592592592613,0.184524742725027,1.6398483375399,0.101049675987125,-0.0772222222218269,0.283814107174471,-0.27208732853563,0.785557188998822,-0.57796296296269,0.361287396703881,-1.59973187062598,0.109671106066971,0.336481481481664,0.294278328478276,1.14341237161983,0.252878706086172,0.0820370370371304,0.205014127070889,0.400153092907416,0.689047286012896,-0.127777777777755,0.145773110885153,-0.876552451970544,0.380738458134361,-0.413333333333262,0.18243432744898,-2.26565547785329,0.0234812642111293,-0.415555555555543,0.211572134533329,-1.9641317911366,0.0495262151986772,-0.590370370370265,0.282488069059115,-2.08989488418614,0.0366376348602689,-0.829259259259067,0.407746406462651,-2.03376227506993,0.0419864334947246,-0.306111111111011,0.258848098463573,-1.18258976182546,0.236983367141405,-0.203888888888887,0.144236224342986,-1.41357616519447,0.157499220449079,-0.129814814814796,0.122784620116095,-1.05725631347032,0.290405157558729,-0.0720370370370624,0.205928547847281,-0.349815689908549,0.72648006126923,0.173888888888736,0.229825935294999,0.756611253057826,0.449290148225507,-0.3638888888889,0.288584410761716,-1.26094437301176,0.207341021067694,-0.367407407407279,0.392446043404345,-0.936198526095808,0.349180305201827,-0.277037037036972,0.256088113603563,-1.08180357588107,0.279350575124051,0.0535185185185327,0.146070191697559,0.366389048282648,0.714077987213367,0.11240740740742,0.131912605425514,0.8521354501704,0.394147333899919
"48",1.83722222222225,0.142721118978145,12.8728126249038,8.51592766721489e-38,1.82999999999993,0.192177570976641,9.52244317950279,1.84422319861916e-21,1.67962962963001,0.288132880156832,5.82935772104794,5.63458232921433e-09,1.21537037037096,0.359436628989839,3.38132030056769,0.000722522557316677,1.30648148148172,0.294969898704459,4.4292027329566,9.49956192947695e-06,1.4838888888889,0.204124677391275,7.26952227360793,3.7168451126159e-13,1.56055555555551,0.150268431683313,10.3851190704135,3.27337527476635e-25,2.26240740740798,0.206407259768195,10.9608906680355,6.85048474009193e-28,2.19444444444488,0.236705566563149,9.27077667123405,1.99733946441541e-20,0.887962962963264,0.295778201113654,3.00212442843974,0.00268375585054852,1.97944444444425,0.393944501684117,5.0246784406994,5.07859529447824e-07,0.55444444444443,0.263375719502618,2.10514638741753,0.0352888261489997,0.626111111111032,0.152566942559315,4.10384517516049,4.07667537170142e-05,1.31055555555553,0.132453970811549,9.89442254940128,4.86701739732331e-23,2.13722222222235,0.228146173333296,9.36777589120508,8.03269634460958e-21,1.92388888888889,0.250212138435103,7.68903099954073,1.53870236112833e-14,0.917222222222351,0.296038615857801,3.09831952012277,0.00194843913306107,2.00518518518541,0.386065377024206,5.19390057881229,2.0759660072083e-07,0.846481481481574,0.259896845389049,3.25699021169128,0.0011275499810399,0.867592592592582,0.162538212785499,5.3377761310661,9.49386780697789e-08,1.50925925925924,0.146463085189885,10.3047075466322,7.5505229101614e-25
"49",0.163703703703706,0.113295515244201,1.44492660058833,0.14849142524637,0.0809259259259394,0.160864526349439,0.503068810522884,0.61492046337093,0.151296296296644,0.274097781224237,0.551979281338544,0.580967635235558,0.371851851852384,0.374353854004109,0.993316478179766,0.320565661290241,0.102962962963178,0.280451071852977,0.367133426457914,0.713522698582718,0.0948148148148656,0.176172345121411,0.538193521517369,0.590448391857452,0.135185185185177,0.11780173241039,1.14756534067111,0.25115936623508,-0.0355555555550551,0.158672837602988,-0.224080920793878,0.822696225848506,0.542592592592994,0.193917959993284,2.79805229289637,0.00514523367200451,-0.293333333333101,0.288953955424017,-1.01515597148569,0.310041613000862,0.463888888888603,0.414403849758814,1.11941259512572,0.262975247938475,0.459814814814842,0.247853207496566,1.85519009198706,0.0635812134573461,0.0249999999999616,0.132061048707998,0.189306387042552,0.849854274077376,0.153518518518532,0.108971243519111,1.40879844590935,0.158907596909592,-0.255925925925823,0.18599061522998,-1.37601526619699,0.168829614591671,-0.0570370370370443,0.20989903089786,-0.271735590169538,0.785827646930324,-0.593703703703622,0.28805806935864,-2.06105562335227,0.0393083714529213,0.921666666666785,0.399527432106472,2.30689207448756,0.0210692219110373,0.328518518518613,0.247555821809822,1.32704824357146,0.184505219399067,0.261481481481486,0.139192756280631,1.87855667542286,0.0603170384488398,0.39981481481482,0.124576962991674,3.20938001066491,0.00133194620684891
"50",1.93833333333335,0.135953795101782,14.2572947807909,6.19380822425144e-46,1.95962962962963,0.182384079316325,10.7445213254106,7.22893561649785e-27,1.27907407407444,0.282202711066719,4.53246557851825,5.85776096123998e-06,0.322222222222691,0.356857191353555,0.902944455176891,0.366564344312419,0.847962962963155,0.288467131254732,2.93954794528863,0.00329001393752516,1.60740740740735,0.198693559549446,8.08988178103144,6.24976774980039e-16,1.63907407407397,0.145829322290825,11.2396742186403,3.07522640007114e-29,2.33685185185233,0.200110288221769,11.6778196294563,2.00877753508922e-31,2.08351851851887,0.227470285315634,9.15951951978171,5.61393305972692e-20,0.250740740740966,0.284959423858985,0.879917348741718,0.378912805602615,0.399999999999673,0.39178764312277,1.0209612452589,0.307282985693259,0.227222222222148,0.260481272493881,0.872316923388362,0.383044144823427,0.752037037036898,0.145066174499265,5.18409642794231,2.18805182180687e-07,1.42370370370361,0.125437756123774,11.3498817875758,8.82994686812164e-30,2.05740740740755,0.220005338717793,9.35162491691458,9.35420933397005e-21,1.69351851851845,0.240330838010334,7.04661346225419,1.88228653298218e-12,0.438888888888995,0.285905539531804,1.53508354405345,0.124776354468527,0.255925925926114,0.38250761579063,0.669074066400284,0.503454601737582,0.466851851851905,0.258022569854991,1.80934502014408,0.0704097964720473,0.873703703703681,0.154409425985596,5.65835730640681,1.54551641732943e-08,1.53962962962957,0.137672093123124,11.1833095197633,5.79489045481576e-29
"51",0.157777777777791,0.106968307926639,1.47499554621354,0.140226723746632,0.281481481481519,0.152467992368083,1.84616769139307,0.064880039917265,0.419814814815198,0.27121069757167,1.54792867159769,0.12165252065284,0.617407407407877,0.376672759831147,1.63910819482843,0.101203701146919,0.44388888888909,0.276847439482024,1.6033700355676,0.1088660063775,0.267222222222273,0.170817662260044,1.56437114691025,0.117743481706575,0.199074074074045,0.112761049507123,1.76545070256259,0.0775006318061413,-0.155555555555083,0.151876294360644,-1.02422538164976,0.30573905007884,0.472962962963344,0.185692057418025,2.54702850267108,0.0108705777952159,-0.634444444444268,0.277237617910818,-2.28845006397492,0.0221198860597485,-0.0394444444447965,0.414289752284189,-0.0952097999704779,0.924148972812646,0.27888888888887,0.2466166877567,1.13085976227208,0.258125305736091,0.049629629629548,0.123329647017507,0.402414430185656,0.687382598989873,0.224814814814812,0.102268508227831,2.1982799857995,0.0279385740573085,-0.65703703703695,0.178534666514976,-3.68016503384141,0.000233587809099039,-0.507222222222273,0.201635241806999,-2.51554350160562,0.0118913092996548,-0.278333333333242,0.279178630969081,-0.996972197933254,0.318787953290976,0.234074074074218,0.400752899863537,0.584085789906758,0.559168027968733,0.0764814814815562,0.247320635808493,0.309240194339376,0.757141477541854,0.366666666666687,0.132146348458109,2.77470146504217,0.00552946809289111,0.397222222222232,0.116386135467112,3.41296856904815,0.000643643470100624
