"","Est.","S.E.","t.value","p","Est.1","S.E.1","t.value1","p1","Est.2","S.E.2","t.value2","p2","Est.3","S.E.3","t.value3","p3","Est.4","S.E.4","t.value4","p4","Est.5","S.E.5","t.value5","p5","Est.6","S.E.6","t.value6","p6","Est.7","S.E.7","t.value7","p7","Est.8","S.E.8","t.value8","p8","Est.9","S.E.9","t.value9","p9","Est.10","S.E.10","t.value10","p10","Est.11","S.E.11","t.value11","p11","Est.12","S.E.12","t.value12","p12","Est.13","S.E.13","t.value13","p13","Est.14","S.E.14","t.value14","p14","Est.15","S.E.15","t.value15","p15","Est.16","S.E.16","t.value16","p16","Est.17","S.E.17","t.value17","p17","Est.18","S.E.18","t.value18","p18","Est.19","S.E.19","t.value19","p19","Est.20","S.E.20","t.value20","p20"
"1",-2.91771604938168,0.304892523335884,-9.56965430788011,1.17144923228872e-21,-5.75685185185046,0.507869217046865,-11.3353037723474,1.04216778933793e-29,-11.2612345679002,0.925113565489982,-12.1728131420662,5.45237952868001e-34,-0.992345679014831,1.39123417440463,-0.713284432823467,0.4756766326428,9.67067901234402,0.994475475464328,9.72440170817557,2.60655572446216e-22,4.45154320987558,0.592329552147683,7.51531507036085,5.87370181933368e-14,2.36351851851761,0.341820651232121,6.91449890461009,4.8117077167937e-12,-2.90148148147995,0.417194314424908,-6.95474837781423,3.62160174719018e-12,-6.25092592592441,0.557257993100346,-11.2172925347323,3.95643569318661e-29,-13.8957407407397,0.839716364614159,-16.5481361639589,3.57708050555241e-61,-21.6093827160498,1.27871873481146,-16.8992461968081,1.05570865463102e-63,11.7825925925891,0.852568521455177,13.8201121623379,2.81331623734943e-43,6.85370370370324,0.363075263090849,18.8768126072756,6.51655432882757e-79,3.29197530864174,0.247204547223514,13.3168072578586,2.56160098428152e-40,-1.98401234567937,0.494588793513512,-4.01143813143264,6.05309098896038e-05,-4.71981481481476,0.638975614907871,-7.38653354634711,1.55569331787616e-13,-12.5538888888895,0.865633597932388,-14.5025434766801,1.84513045901017e-47,-19.3951234567887,1.28825474062734,-15.0553480186254,5.41535307675244e-51,15.5048148148139,0.744713232235761,20.8198460073896,1.95773039765653e-95,7.61358024691358,0.31075473569622,24.500287115033,5.73889616709781e-131,3.43790123456759,0.238529984542104,14.4128682235367,6.71309231724367e-47
"2",-2.43703703703833,0.280712539041299,-8.68161089405338,4.14325958605562e-18,-3.63555555555766,0.431189420292887,-8.43145815843114,3.60129648835902e-17,-5.38518518518815,0.818208604528131,-6.58167752744893,4.74664824898435e-11,-0.757777777774986,1.23818062089544,-0.612009076048183,0.540537490800348,4.18592592592876,0.864275454113559,4.84327757546006,1.28501899085112e-06,3.12592592592762,0.497958910018158,6.27747764532144,3.49938139924192e-10,2.11333333333445,0.309017015021356,6.83888986885853,8.1705128219338e-12,-1.80740740740879,0.371383468968635,-4.86668782654251,1.14196713088226e-06,-2.21111111111189,0.49172846714486,-4.4966099358663,6.93653510706907e-06,-2.80148148148279,0.765363654710535,-3.66032730224475,0.000252427815485505,-0.533333333332462,1.17785058476526,-0.452802197690255,0.650695232031881,7.68370370370855,0.698683427356396,10.9974036922292,4.58213144899652e-28,2.85777777777907,0.34152956891931,8.36758523375248,6.19424186727642e-17,1.89259259259338,0.258576030262556,7.31928860796436,2.57045205622434e-13,-2.69851851851978,0.426495757816735,-6.3271872440976,2.54032544888848e-10,-3.45481481481658,0.540202302665236,-6.39540927125135,1.63036204261107e-10,-4.26962962963162,0.794162008138923,-5.37627031496668,7.67469809654257e-08,-4.12888888889281,1.16992917438061,-3.5291785001248,0.000417623497783674,3.27333333333546,0.701821096255769,4.66405662468507,3.11688736699296e-06,1.96962962963047,0.339997566156479,5.79306979134075,6.99655562956736e-09,1.69185185185258,0.265455605933801,6.37338904899411,1.88220472029272e-10
"3",-2.83462962962952,0.265841172845088,-10.6628691082451,1.73818612451869e-26,-4.35537037037019,0.405148711255783,-10.7500536207321,6.81014038561321e-27,-8.06370370370282,0.716400969189664,-11.2558525888426,2.56239786238517e-29,0.491851851853568,1.13927279841087,0.431724388170799,0.665945578221652,8.14092592592537,0.741571265404577,10.9779414409807,5.67848247626738e-28,4.83148148148106,0.441742587390447,10.9373232724121,8.87465335110324e-28,3.14351851851836,0.283929279000401,11.0714841723453,2.01826324775408e-28,-3.33333333333382,0.337891696109379,-9.86509396861529,6.51415583871792e-23,-4.13407407407407,0.442260821141335,-9.34759281503918,9.71634935335434e-21,-7.63685185185115,0.674678927419204,-11.3192387393271,1.25070532977267e-29,-10.5959259259239,1.00027434537661,-10.593019779923,3.66264373466149e-26,8.91481481481548,0.639129902448583,13.9483613278955,4.76491951874964e-44,3.42833333333306,0.312057178969106,10.9862344608084,5.1826718032636e-28,2.42259259259234,0.234502379027777,10.3307804493761,5.76213782545885e-25,-3.51759259259257,0.40028353708747,-8.78775234721658,1.62492987407948e-18,-4.71796296296297,0.500793593742374,-9.42097307536657,4.85523603117015e-21,-8.22481481481413,0.697390933214081,-11.7936933548996,5.14613737642002e-32,-10.8985185185185,1.02617333056174,-10.6205435221674,2.73206124942297e-26,6.18981481481487,0.566745457867641,10.9216840274359,1.05348779417916e-27,3.10777777777731,0.291960759220508,10.644505056346,2.1154384133609e-26,2.54759259259228,0.231337746278689,11.0124380200507,3.88140509691867e-28
"4",0.109259259257279,0.274410758829186,0.398159531803527,0.690516099367513,0.422777777775535,0.421886017738884,1.0021137463655,0.316298659042124,1.78611111110885,0.772882300977043,2.31097426975741,0.0208426214493185,0.682407407407408,1.15662630500342,0.589998173528822,0.555197371541957,0.138333333334369,0.80515407956088,0.171809765169189,0.863588521885347,0.796851851853155,0.471185944857559,1.69116218458945,0.0908186815056541,0.343148148149443,0.299899926960505,1.14420884202027,0.252548331331408,0.941296296293071,0.369214981416607,2.54945314700259,0.010795300774136,0.848148148144212,0.479434673247059,1.76905884257384,0.0768966230944581,0.580740740737041,0.721042216057068,0.80541850089271,0.420586116459035,4.00629629629573,1.11018057887186,3.60868886786584,0.000308367614348449,3.58722222222526,0.675627005190003,5.30947134242576,1.10910977007215e-07,0.405740740741985,0.329488034495558,1.23142784642595,0.218174829717725,0.108703703704818,0.247929891977999,0.438445331611987,0.661067397252842,0.35055555555359,0.419297498060029,0.836054489176566,0.403132487807049,0.397962962960818,0.526000538830573,0.756582804735499,0.449307196680277,0.207962962961692,0.750163906157793,0.277223365793273,0.781610962263982,2.01685185185276,1.10385604433633,1.82709680505971,0.0676975003834553,-3.00074074073922,0.63944048924095,-4.69275998506329,2.71014841329083e-06,-1.0974074074069,0.318951994052441,-3.44066639453733,0.000581260598049141,-0.625185185184549,0.246076983672995,-2.54060812942726,0.0110721669364441
"5",2.51574074073941,0.278650514717896,9.02830107199454,1.87002196016947e-19,5.14703703703482,0.420511825793052,12.239934102514,2.40213564601742e-34,10.3938888888853,0.728411464098395,14.2692549488503,5.2255222529414e-46,1.27425925925985,1.08337232682295,1.17619698021703,0.239527717582913,-8.43388888888678,0.761686926536346,-11.0726449346303,1.99241467870096e-28,-3.53666666666572,0.460429295142835,-7.68123728002271,1.63504382475286e-14,-1.99740740740683,0.295106689003541,-6.76842471497776,1.33160582938479e-11,-0.647962962962848,0.347387523795431,-1.86524534872018,0.0621590896852933,0.618518518518849,0.452098369971809,1.36810605744369,0.171291557587663,5.96240740740736,0.699213288709847,8.5273084818066,1.58402492305646e-17,18.2901851851818,0.99789347019001,18.3287953389445,1.55501140167894e-74,-2.0064814814799,0.650224437574606,-3.08582908536051,0.00203214053175455,-3.50925925925848,0.327510977055469,-10.7149363078115,9.94161379933304e-27,-3.05962962962901,0.248714155440414,-12.3017912840993,1.12418279454013e-34,0.0255555555568153,0.404266880962023,0.0632145663181743,0.949596166767308,1.57277777777852,0.507242023025747,3.10064566101356,0.00193320523310941,7.87611111111011,0.717564494114675,10.9761717249229,5.79023048477535e-28,18.9722222222183,1.01085927167024,18.7684109489054,4.89603080041711e-78,-11.1340740740722,0.608609015121307,-18.2942969910707,2.90499587206614e-74,-7.53129629629524,0.324120608368473,-23.2360920652517,3.84282451942355e-118,-5.01111111111037,0.262966010538633,-19.0561171797302,2.26280741714906e-80
"6",-1.19129629629669,0.277888529948247,-4.28695742324649,1.81836085484492e-05,-1.62000000000065,0.422749631801547,-3.8320553777824,0.000127397558392479,-0.80388888888868,0.781010675740961,-1.02929308632819,0.30335223746093,3.79129629629923,1.19283012830759,3.17840420553293,0.00148274046887334,5.15851851852008,0.80649776799482,6.39619689381857,1.62199287159547e-10,3.47185185185252,0.472394056206587,7.34948250562706,2.0526899736085e-13,2.12703703703753,0.298747382472379,7.11985162659687,1.11054766810633e-12,-0.233888888888931,0.380602577373082,-0.614522609130057,0.538875803144968,0.199999999999994,0.498514019696168,0.401192327794289,0.688282064018365,0.808888888889327,0.773416113616008,1.04586505847088,0.295633763715733,2.36296296296362,1.12735420566249,2.09602532291529,0.0360902830711884,3.69537037037193,0.70224006520585,5.26226080434287,1.43503970915519e-07,1.1907407407411,0.33448941682611,3.55987568168748,0.000371739810427546,0.488333333333508,0.252221932763022,1.93612556998493,0.0528639298575023,-1.01833333333151,0.451247269939635,-2.25670802056649,0.0240351892320385,-1.37944444444241,0.559125999871837,-2.46714415848772,0.0136264084863753,-0.84129629629417,0.777380121463977,-1.08221997587207,0.279165555868551,0.507962962963656,1.12775399490668,0.450420007606082,0.652411647947694,2.94444444444527,0.667076518525191,4.41395306636637,1.01937937298653e-05,1.09277777777798,0.346113028655192,3.15728587861579,0.00159440203965392,1.05907407407431,0.271511561004068,3.90065922113143,9.61897672441921e-05
"7",-1.38203703703736,0.279478427639709,-4.94505800933953,7.66296280576069e-07,-1.66629629629677,0.434025105363494,-3.83917030537037,0.000123764256290666,-1.16574074074071,0.800030588017808,-1.45712021290211,0.145096148596065,3.13611111111261,1.2155420672394,2.5800103473465,0.00988556264449802,4.75259259259328,0.816213424309084,5.82273269594445,5.86230864133112e-09,4.04944444444481,0.462284423711661,8.75963851849476,2.08436067044577e-18,2.65574074074119,0.291644911438775,9.10607604171662,9.18311183485696e-20,-0.65814814814865,0.36436112227295,-1.80630728120224,0.0708827480400105,-0.309074074074796,0.483980577828554,-0.638608424043583,0.523083730999021,-0.745370370371044,0.725635192569495,-1.02719710676058,0.304337906245868,2.17740740740721,1.10721286387703,1.96656621183281,0.0492446289026413,5.59907407407546,0.671402038961101,8.33937603576424,7.86062178969556e-17,1.70259259259296,0.332797199856758,5.1160063646142,3.14449906297085e-07,0.770925925926057,0.252928452227377,3.04800001398424,0.00230617882906716,-1.02777777777768,0.4161365033127,-2.46980923229744,0.0135253443448245,-1.12648148148148,0.524280264476918,-2.14862461512906,0.0316740397011414,-0.110740740740598,0.763134193482432,-0.14511306358224,0.88462281027634,2.5070370370363,1.12102697869379,2.23637529219632,0.0253362548813886,4.95351851851914,0.606388059833457,8.16889191366931,3.26274044789005e-16,2.01462962962986,0.297568085190153,6.77031486203387,1.31435621437826e-11,1.28796296296315,0.236079606530903,5.4556299118304,4.92767252798791e-08
"8",4.57018518518459,0.316601361920157,14.4351406370044,4.87450568183272e-47,6.82537037036928,0.468259299477868,14.5760487362022,6.36421705930173e-48,11.1611111111098,0.819685189452609,13.6163386318634,4.57335850360919e-42,0.340740740741377,1.16894291442784,0.291494765514839,0.770675440003855,-10.856111111109,0.849375880228584,-12.7812801891519,2.75256935695142e-37,-6.67685185185084,0.509912094999964,-13.0941233152183,4.82711757262208e-39,-4.9614814814807,0.34035875858975,-14.5772111228699,6.25772309887409e-48,7.60796296296012,0.421132266842843,18.0654952421379,1.78115316181053e-72,8.98685185184855,0.533089195179119,16.8580641534649,2.10356380983746e-63,10.1259259259228,0.775150010738281,13.063182333286,7.23119045873898e-39,7.97259259259063,1.10211530088156,7.23390065106031,4.83250194857825e-13,-10.0248148148123,0.728379319260332,-13.7631788131938,6.15651544844079e-43,-5.5518518518509,0.372889204431362,-14.8887438570854,6.48271020994408e-50,-4.21203703703637,0.286513700494045,-14.7009969497913,1.02970553273271e-48,7.79296296296185,0.475974346284722,16.3726533242617,6.29040664105626e-60,9.23759259259119,0.581161119557458,15.8950629725977,1.32481662635732e-56,10.8999999999991,0.803554746270219,13.5647260508292,9.20840602782425e-42,8.68555555555305,1.10956171024384,7.82791572146472,5.16214908397345e-15,-9.52444444444298,0.678489506745936,-14.0377181220128,1.36978271580047e-44,-5.2033333333328,0.364673085597346,-14.2684874174621,5.28286302592781e-46,-3.90777777777738,0.285395228680453,-13.6925126458676,1.62027149725535e-42
"9",0.433888888888611,0.265915319771738,1.63168067661939,0.102759758186103,0.738148148147714,0.416802778008003,1.77097703541108,0.0765770799526869,1.40666666666681,0.781643183937009,1.79962762494986,0.0719318821218686,0.376296296297664,1.22521763509972,0.307126085617465,0.758750040480095,-1.38944444444384,0.810843980093325,-1.71357804775701,0.0866190290216959,-0.967037037036663,0.468249890693706,-2.06521572403148,0.0389131960017473,-0.721481481481179,0.287424020574933,-2.51016418195668,0.0120739618157585,2.45074074073922,0.34850217096514,7.03221082942512,2.08680277763982e-12,3.20296296296107,0.467150256257,6.85638704048784,7.23186689248956e-12,1.34925925925757,0.737422437570491,1.8296965084258,0.0673076041091263,-0.542037037038291,1.1327262026654,-0.478524321025531,0.632281382421637,-1.78703703703589,0.680166083942858,-2.62735393490456,0.00861059257176435,-0.657592592592263,0.32242002906334,-2.03955255044989,0.0414057284262714,-0.464259259259014,0.242425020985321,-1.91506329409424,0.0554961832218607,2.55351851851823,0.412542755444138,6.1897063633299,6.12423233592186e-10,2.64574074074026,0.524957363468969,5.03991547667214,4.69085464214806e-07,1.17592592592595,0.759049434989087,1.54920861767437,0.121344628651044,-0.350370370371527,1.13893328073031,-0.307630285548301,0.75836631451125,-1.0898148148143,0.636081760806852,-1.7133250502764,0.0866655381263848,-0.0903703703703106,0.305725023632274,-0.295593632790125,0.767542967717764,-0.0588888888887481,0.245547524791535,-0.239826847933994,0.810466519748013
"10",6.97574074074103,0.312299067858776,22.3367325063407,2.06443037980238e-109,9.63407407407466,0.454928259226319,21.1771282145871,1.2147210635908e-98,13.0481481481492,0.771199690712693,16.9192860231711,7.54378750176749e-64,-0.622777777776918,1.1296821437725,-0.551285847271331,0.581442818202613,-13.1738888888895,0.798975862791914,-16.4884691796009,9.51361085083314e-61,-9.07222222222287,0.491628347435034,-18.4534156127393,1.61131195362691e-75,-6.70129629629656,0.329313881813532,-20.3492675723007,2.72939289442487e-91,10.4511111111114,0.394883083293634,26.4663429588853,3.43346494232638e-152,11.9953703703705,0.497840370452985,24.0948124786584,8.76729233087801e-127,12.2712962962964,0.73348355488067,16.7301587263164,1.77160162617388e-62,8.70574074074049,1.05869192573839,8.22311054716754,2.08132728251913e-16,-11.3709259259264,0.692752618116633,-16.4141219081065,3.20330566347576e-60,-8.21666666666733,0.370186585781761,-22.1960140703515,4.47697065760296e-108,-6.62092592592657,0.288649735323782,-22.9375783715852,3.30211153456308e-115,10.4657407407417,0.45183686210047,23.162653644701,2.04099922324129e-117,11.5344444444458,0.553201234578422,20.850359188435,1.0468538727904e-95,11.6500000000014,0.757634181263343,15.3768141513562,4.17231651461213e-53,9.21962962962909,1.06255948273219,8.67681271444908,4.32121064249032e-18,-12.3418518518524,0.643739445905927,-19.1721230232892,2.53148922746492e-81,-7.68351851851907,0.353268182596491,-21.7498175523362,6.82954037649904e-104,-5.80962962962985,0.28472408998897,-20.4044189933311,9.01710582012022e-92
"11",6.37407407407389,0.286372703761241,22.257966595127,1.15800963203849e-108,8.27333333333338,0.43071126396364,19.2085371931016,1.26947412749377e-81,10.4714814814818,0.770861703989625,13.5841246585298,7.08071238979505e-42,-0.329444444443475,1.14491061098518,-0.287746869740331,0.773542968739509,-10.5905555555554,0.806658048279123,-13.1289281476193,3.06029618144485e-39,-7.9361111111113,0.479251399913346,-16.5593905673436,2.97325893335764e-61,-6.23796296296297,0.307077637268523,-20.3139603992335,5.53780383685071e-91,9.8681481481478,0.373228014461858,26.4399985150532,6.76581313293745e-152,10.8546296296291,0.482748833310792,22.4850458056746,7.90251764539866e-111,9.12796296296225,0.719866741805211,12.6800731758659,9.97633862599259e-37,6.02092592592521,1.06883660231451,5.63315843870544,1.78899047692319e-08,-9.38203703703642,0.685614223801584,-13.6841341841116,1.81666511599418e-42,-7.07555555555558,0.338680974926706,-20.891505810407,4.4944017871717e-96,-5.77481481481497,0.258086189741739,-22.3755281930959,8.81046268908627e-110,9.55296296296304,0.430832405418306,22.173269333554,7.3484827163529e-108,10.1488888888895,0.534429984014231,18.9901188040738,7.82277788552658e-80,9.49055555555647,0.744748843715497,12.7432967981646,4.46815863537496e-37,6.51407407407333,1.07240966422358,6.07424036857171,1.26429979148459e-09,-9.69074074074058,0.639411536196304,-15.1557177062965,1.19806584510216e-51,-6.32370370370368,0.321558562990178,-19.6657916520694,1.96312416040304e-85,-5.10703703703699,0.253134772395941,-20.175169885585,8.83547771136049e-90
"12",2.1562962962968,0.24018470406438,8.97765869269848,2.96192381866023e-19,3.29185185185272,0.34340735169162,9.58585142582741,1.00204664953166e-21,5.63037037037185,0.604354848555693,9.31633192623091,1.30365443231163e-20,0.297037037036141,0.847909198855272,0.350317035641503,0.726103824490405,-4.38074074074184,0.612843066869611,-7.14822599383977,9.03957658203563e-13,-2.07703703703766,0.358445993582681,-5.79456061505277,6.93477662531097e-09,-1.07851851851878,0.248396042802159,-4.34193116102819,1.41808058402799e-05,1.5755555555558,0.320667620685015,4.91336029559229,9.01118469534346e-07,2.04592592592564,0.402446061562538,5.08372704153725,3.72850838559359e-07,2.38222222222197,0.584525618135069,4.07547958261,4.60657938818449e-05,1.35851851851775,0.842831347475438,1.61185096233898,0.107007389438678,-6.10370370370522,0.508735491486153,-11.9977941501086,4.52747387350092e-33,-2.89333333333389,0.286042037032584,-10.1150633779199,5.28643186457508e-24,-2.22296296296332,0.231659757576789,-9.59580976090102,9.10177012599063e-22,2.2022222222227,0.347291883638021,6.34112781201088,2.32109062245952e-10,2.78000000000056,0.42242136714292,6.58110648806264,4.76488437977916e-11,3.89407407407494,0.599136115084391,6.49948146345082,8.21628626277635e-11,4.12962962963066,0.828598381713491,4.98387363621304,6.27528404703235e-07,-1.1837037037038,0.51371922264078,-2.30418417597644,0.0212207174913528,-0.761481481481391,0.294920259068661,-2.58199109103627,0.00982902172323304,-0.533333333333223,0.236958197378477,-2.25074860981225,0.0244103845827094
"13",2.17555555555548,0.222702151094483,9.7689022978161,1.68460984635279e-22,3.81814814814806,0.31597782540879,12.0835952434587,1.60996246143209e-33,8.73240740740718,0.533243709023306,16.376015805984,5.95581369083612e-60,-0.122222222222727,0.766306804032177,-0.15949515465557,0.8732801038439,-8.01962962962914,0.531121908017738,-15.0994141054361,2.79585308383281e-51,-3.65259259259253,0.318642676465726,-11.4629736139108,2.42381976324411e-30,-1.98074074074061,0.226185486810209,-8.75715223232972,2.13068900388759e-18,3.3674074074071,0.284938688655875,11.8180069659616,3.86060864583896e-32,4.52388888888796,0.355008339812461,12.7430496175886,4.48224632715167e-37,7.19611111110982,0.511780969532654,14.0609196892982,9.89748928075737e-45,10.4240740740725,0.729749782561239,14.2844497157459,4.20967034362063e-46,-7.93296296296275,0.461943471498472,-17.1730167269806,1.03539769857626e-65,-3.47685185185161,0.262444215695475,-13.2479652585902,6.38213262387385e-40,-2.64166666666641,0.213385473731293,-12.3797867796425,4.29272885473805e-35,2.89370370370354,0.323251268830484,8.95187113780838,3.73988274692447e-19,3.65499999999971,0.389355347390316,9.38731167941477,6.67890244893392e-21,6.58833333333294,0.541098239714485,12.1758543084696,5.25409541526204e-34,10.9085185185177,0.738271410528539,14.7757563992734,3.43777964524511e-49,-4.62240740740706,0.438216002052002,-10.5482396483973,5.89151057276655e-26,-2.36481481481445,0.262738581717114,-9.0006378178619,2.40481774696936e-19,-1.57425925925895,0.213278894254863,-7.38122384195106,1.61887718288817e-13
"14",2.43111111111114,0.239187623914717,10.1640338714931,3.20907123000285e-24,3.54148148148171,0.340940135737656,10.3873997522157,3.19639651077413e-25,4.76740740740785,0.570313420123873,8.35927621407254,6.64507671888923e-17,0.584444444443534,0.789851197039856,0.739942468447058,0.459342067467322,-3.64666666666679,0.574143087011314,-6.35149451271705,2.170153083063e-10,-3.19185185185185,0.349362478466917,-9.13621825062161,6.9598389047222e-20,-1.73407407407404,0.244410573334882,-7.09492249215454,1.3298143586164e-12,1.99703703703674,0.302008568461098,6.61251780773228,3.85693970061366e-11,2.39259259259145,0.378059039795429,6.32862156631964,2.51686665828782e-10,3.37259259259138,0.574870218047707,5.86670258209741,4.50319874474031e-09,0.97481481481339,0.763588122287068,1.27662385828326,0.201747300002481,-5.91777777777786,0.481800772716509,-12.2826240904762,1.42295278751804e-34,-2.78518518518502,0.279694683757064,-9.95794824475164,2.58109854221779e-23,-2.2703703703702,0.227871995419677,-9.9633584468719,2.44492642571496e-23,2.41185185185172,0.329421596520739,7.32147460070936,2.52900775286928e-13,3.08592592592568,0.399942658798752,7.71592091524923,1.24726392219714e-14,4.45333333333307,0.575795153336104,7.73423205723575,1.0806400932678e-14,3.08592592592584,0.764208911963786,4.03806587127588,5.40593877381239e-05,-0.825925925925526,0.487227043762025,-1.69515616281951,0.0900586390736803,-0.774074074073683,0.293194316635353,-2.64014010556829,0.00829248185406949,-0.764444444444101,0.243252659717177,-3.14259439273099,0.00167659343821114
"15",2.41407407407415,0.221495806349762,10.8989606343251,1.35101182837621e-27,3.68962962962988,0.312049915899928,11.8238443326904,3.60287797508957e-32,6.10240740740783,0.504372895331489,12.0989994979749,1.33618718445812e-33,-1.04277777777822,0.715738110317199,-1.45692644103593,0.145149634816607,-6.76222222222208,0.499851207211836,-13.5284703220818,1.50322440404148e-41,-3.86370370370364,0.310115123504179,-12.458933508451,1.60629643754868e-35,-2.13777777777773,0.220759477164588,-9.68374180458807,3.87737805133186e-22,3.72555555555535,0.269158172963847,13.8415100479069,2.09428238392205e-43,4.4175925925916,0.334398531959656,13.2105621597782,1.04598876407775e-39,7.62018518518393,0.506548263774029,15.0433546616266,6.48079262001119e-51,7.97018518518394,0.66091266780521,12.0593621115657,2.15752560978106e-33,-6.70277777777783,0.439303580001579,-15.2577353859801,2.55999306123137e-52,-2.92129629629614,0.256947494947014,-11.3692343912461,7.08377133972871e-30,-2.27314814814798,0.208434688877353,-10.9058053646989,1.25354975511861e-27,3.52759259259243,0.307759078604577,11.4621885683667,2.44577483045804e-30,4.51907407407375,0.369634088213229,12.225804432482,2.85558726259572e-34,7.88481481481437,0.516520658174022,15.2652458135719,2.28414412574049e-52,7.50018518518476,0.674839425769766,11.114029350952,1.25724233091779e-28,-4.18296296296254,0.415040055913988,-10.0784560510695,7.66568682538257e-24,-1.82314814814778,0.259279574862888,-7.03159186029944,2.09606419640614e-12,-1.45499999999966,0.216549841215824,-6.71900746650534,1.87019041747899e-11
"16",0.771111111111281,0.224445345291108,3.43562977486186,0.000592168260634923,0.987407407407685,0.319498974599217,3.09048693707484,0.0020005487655749,1.03185185185228,0.52894463240051,1.95077478557524,0.0510953447637868,0.157777777776452,0.720855276473907,0.218875803404296,0.826748637608132,-0.881481481482023,0.549476806472293,-1.60421963420302,0.108678671338971,-0.760740740740906,0.340401103350534,-2.23483629533809,0.0254371692823547,-0.639259259259353,0.237539312381431,-2.69117247520216,0.00712501915253067,0.0770370370371548,0.277954992248922,0.277156515210795,0.781662290432696,-0.312592592592455,0.346814969417335,-0.901323818627624,0.367425124908299,-0.903703703703315,0.538411930645346,-1.67846151295371,0.0932699229944005,-2.65259259259301,0.734056677260732,-3.61360733409802,0.000302576927444957,-1.2585185185194,0.465910912599325,-2.70119991716465,0.00691378014443821,-0.227407407407548,0.272389971181113,-0.834859691865616,0.40380493696773,0.0496296296295239,0.220831874955554,0.224739429665724,0.822183882327883,0.460000000000028,0.306003728476057,1.50324965741723,0.132787699299394,0.473333333333439,0.377577118356802,1.25360703898945,0.209996957431242,-1.10814814814792,0.55262036787725,-2.00526113868113,0.0449462286983694,-1.50814814814707,0.725961331300654,-2.07744969755487,0.0377705720292435,-1.1229629629635,0.475708140234757,-2.36061330043528,0.0182526131921534,-0.422962962963085,0.288493564422238,-1.46610883265333,0.142631606659824,-0.748888888889006,0.234293885463447,-3.19636548520103,0.00139349075181831
"17",0.842962962963029,0.207154657027651,4.06924456856653,4.73150966445559e-05,1.00388888888902,0.290812439100336,3.45201495505031,0.00055736534341468,0.63592592592602,0.461648146108378,1.37751214054855,0.168366677266442,0.723148148147176,0.649460983615323,1.11345895502708,0.26552240386057,-0.952962962963299,0.478137351500911,-1.99307366381621,0.0462645679023765,-1.16203703703713,0.30550284033546,-3.8036865246855,0.000142908100657766,-1.01481481481486,0.216744084951757,-4.68208770283507,2.85504327243547e-06,0.451851851851898,0.248410965903354,1.8189690225982,0.0689284841954761,0.23814814814818,0.309388012411761,0.769739416507293,0.441461981595395,0.308703703703819,0.479148747397879,0.644275301522337,0.519403022587069,-1.3514814814818,0.641134081754217,-2.10795451363931,0.0350451582367504,-1.05907407407478,0.416816456857402,-2.54086434604742,0.0110640589646236,0.0587037037035601,0.245395089699787,0.239221183175985,0.810936099394614,0.339814814814695,0.198888219012708,1.70857186263498,0.0875430816728674,0.382037037036795,0.284287910205132,1.3438384937338,0.179013192241579,0.339074074073823,0.34568525201315,0.980875151887949,0.326664098191765,-0.681111111111284,0.491684015033651,-1.38526185575642,0.165985155024478,-1.47592592592552,0.639795910910195,-2.3068698951605,0.0210704589137111,-1.51574074074115,0.406326442703548,-3.73035220315952,0.000191647986727491,-0.677777777777863,0.256064911165726,-2.64689829892079,0.00812862666826306,-0.67240740740746,0.210378341795847,-3.19618170609962,0.00139437830708879
"18",0.642962962963061,0.224215956590937,2.86760573484113,0.00413947064461794,0.552592592592793,0.322859306899543,1.71155850484661,0.0869908484404402,-0.0896296296292602,0.535477307438865,-0.167382685286796,0.867070343878704,-0.0829629629642086,0.732153507119865,-0.113313618192675,0.909782859056109,-0.474814814815224,0.545540302153384,-0.870356989100551,0.384113959557336,-1.28370370370378,0.331275933159862,-3.87502856443337,0.000106892579604855,-1.10888888888891,0.230602769373792,-4.80865382449712,1.528611315651e-06,-0.164444444444299,0.263965738827569,-0.622976471017396,0.533305842516719,-0.497777777777502,0.333677646019787,-1.49179240418156,0.135766584456125,-1.15703703703647,0.517414973202072,-2.23618777376317,0.0253485321889707,-1.30296296296324,0.725423241465519,-1.79614173972557,0.0724844206512007,-1.43629629629716,0.448823474100284,-3.20013631010805,0.00137539429827179,-0.148888888889019,0.264815506598437,-0.562236293491649,0.573960233725886,0.121481481481392,0.216172657782431,0.561965064072341,0.574145016195232,-0.0481481481478813,0.288365968877841,-0.166968898359425,0.86739591308779,-0.394074074073666,0.35755839593068,-1.10212507539626,0.270418237862524,-2.05333333333263,0.531226755864323,-3.8652671588271,0.000111256742631523,-2.97629629629479,0.715279947620793,-4.16102297596169,3.17916660307079e-05,-3.25111111111149,0.455854206717974,-7.13190985889678,1.01763323296462e-12,-1.63037037037046,0.274401214615047,-5.94155668245739,2.86181055617371e-09,-1.2533333333334,0.227237363153976,-5.51552489404722,3.51288668503148e-08
"19",0.698333333333415,0.208139032410701,3.35512914250251,0.000794495818256125,0.745555555555679,0.296973454022402,2.51051245644143,0.0120620614459429,0.568888888889013,0.475065990145846,1.19749445485324,0.231125593018811,1.16740740740674,0.661888217275609,1.76375311863367,0.0777861442724319,-0.915000000000204,0.475587779361473,-1.92393505406865,0.0543744154892879,-2.1303703703704,0.293859194825492,-7.24962978148607,4.30428931807408e-13,-1.70203703703705,0.208613254157352,-8.15881543055386,3.54593292834882e-16,0.423333333333459,0.238819080278894,1.77261101935025,0.0763057366411861,0.191666666666813,0.297212524738503,0.644880853643189,0.519010500923001,0.124259259259541,0.457175385325981,0.271797789749638,0.785779818676317,-0.487037037037261,0.629097284751051,-0.77418397574231,0.438829550860869,-2.41722222222294,0.405808191464262,-5.95656340376217,2.6114760493584e-09,-0.813518518518628,0.241435502416516,-3.36950659855805,0.000754202035196259,-0.323518518518577,0.196882692606215,-1.64320445965074,0.100353602373646,0.348148148148298,0.268590586610174,1.29620383402934,0.194917604998742,0.320000000000213,0.330188065939487,0.969144657271951,0.332482685153454,-0.811851851851524,0.478039677705566,-1.69829386495311,0.0894651413904375,-1.95259259259183,0.633310808612343,-3.08315058899781,0.00205051403876764,-2.24851851851893,0.381591450816206,-5.89247613831352,3.85477088721548e-09,-0.952407407407476,0.236572595258832,-4.02585686801743,5.69407235541873e-05,-0.687407407407458,0.19817388457016,-3.46870834620034,0.000523874458080359
"20",0.485925925926025,0.221967256465812,2.1891784115504,0.0285933740172528,0.796296296296415,0.315298166064012,2.5255341832047,0.0115585711878591,1.14000000000006,0.524538515166293,2.17333897709808,0.0297644591785519,-0.19703703703818,0.71639351523593,-0.275040229772724,0.783287674111135,-1.06888888888931,0.530685846579359,-2.01416505787567,0.0440032282914797,-0.880740740740928,0.321887622049018,-2.73617461626656,0.00622032636360345,-0.455555555555702,0.227597390416196,-2.00158514437556,0.0453404885218336,0.754074074074461,0.278547546124154,2.70716466386803,0.00679081154128618,0.965925925926414,0.348209989680134,2.77397534405522,0.00554182098619113,1.77629629629692,0.513915672538256,3.45639643080683,0.000548387131618694,1.73333333333343,0.706760279693253,2.45250530220195,0.0141935233539965,-0.914074074074793,0.451019760099088,-2.02668298584961,0.0427057646521397,-0.205925925926061,0.265846236322002,-0.774605383830361,0.438580427596489,-0.0785185185186124,0.217304300207528,-0.361329796251738,0.717856069978536,0.618518518518657,0.303139128642071,2.04037836121435,0.0413234649463007,0.785925925926133,0.368344667201974,2.13366989101864,0.0328798181020154,1.3340740740743,0.524397466222084,2.54401319610747,0.0109648435713029,1.0177777777789,0.700800868469679,1.45230667308019,0.146429291302461,-1.10962962962994,0.456120955579465,-2.43275301442848,0.0149916992381776,-0.733333333333377,0.277729820789972,-2.64045586191461,0.00828476088635556,-0.54296296296301,0.22738635858299,-2.38784316854629,0.0169551804840893
"21",1.3772222222222,0.204183005017078,6.7450384624666,1.56427228909985e-11,1.86648148148135,0.286734462056402,6.50944245799868,7.69042901392947e-11,3.00592592592546,0.465619448000021,6.45575681779797,1.09716009444251e-10,-0.187037037037555,0.643844765901538,-0.29050020586198,0.77143607753525,-2.47277777777771,0.464316802029032,-5.32562631154385,1.01501439705749e-07,-1.69351851851839,0.285149545231563,-5.93905389939556,2.90577411010763e-09,-1.07648148148143,0.205410638938585,-5.24063158093427,1.61366302980268e-07,0.966111111111403,0.248602047670169,3.8861751951182,0.000102106772313293,1.08203703703722,0.308774364201195,3.50429686686092,0.000458640059561123,2.25907407407431,0.451699338287515,5.00127824547834,5.73488357502615e-07,4.24944444444446,0.612512060575295,6.93773187168464,4.08464540539662e-12,-2.11703703703749,0.407344140094811,-5.19717071797015,2.03982988056665e-07,-1.33907407407402,0.241250963302984,-5.55054394701959,2.87760454889703e-08,-1.07481481481477,0.197123887573184,-5.45248385696398,5.01557027708507e-08,1.2727777777776,0.281470225834851,4.52189134393344,6.15796228696917e-06,1.6449999999998,0.338566937225117,4.85871424269056,1.18887781801648e-06,3.04592592592566,0.472595551157874,6.44510071764967,1.17694453352213e-10,3.81537037037099,0.624180926554967,6.1126032662182,9.95140918774865e-10,-2.67259259259273,0.393609506093704,-6.78995946799231,1.14754876241543e-11,-1.78814814814807,0.244557626214172,-7.31176604806465,2.71823524891088e-13,-1.48462962962956,0.201541658385502,-7.36636604820335,1.80938747394157e-13
"22",-0.0962962962962328,0.20172425159218,-0.477365986172611,0.633105832933881,-0.154074074074002,0.294611373440626,-0.522973951326604,0.600997158817899,-0.295555555555521,0.51863149500749,-0.56987583361333,0.568767196096081,-0.501481481482877,0.748673229145208,-0.669826917753476,0.502974510110211,0.394814814814513,0.524420930654125,0.752858613637044,0.45154218876859,0.411851851851693,0.305016971668892,1.35025880559451,0.176945583116593,0.322962962962877,0.205098579282355,1.5746718680009,0.115345250196823,-0.908148148147845,0.238466719736526,-3.80828045586918,0.000140281185396441,-1.31407407407381,0.314134475354055,-4.1831577785047,2.88498310461792e-05,-1.16148148148106,0.512319819766919,-2.26710237759196,0.0233927373096028,1.06444444444476,0.744669349269415,1.42941890315356,0.15289675077945,0.465925925925332,0.427947597338137,1.08874527821496,0.276277049059403,0.182962962962865,0.245937361387059,0.743941310628751,0.456919190186933,0.134074074073991,0.199915415363042,0.670654005497849,0.502447357130435,-0.897777777777724,0.270101032624073,-3.32385910951793,0.000889125247993341,-0.939999999999883,0.340953055857311,-2.75697778286895,0.00583819386328776,-0.446666666666511,0.523280302451344,-0.853589681427084,0.393340809471682,1.28444444444562,0.730964150251461,1.75719211948185,0.0788976862299698,-0.0511111111114773,0.439256002337132,-0.116358366964896,0.907369493121429,-0.237777777777844,0.258070801668767,-0.921366447658155,0.356868306245409,-0.134814814814862,0.211513216834232,-0.637382461638411,0.523881767210854
"23",-0.315925925925871,0.182736614185589,-1.72885946986527,0.0838469774912324,-0.636481481481437,0.266085888549561,-2.39201516830114,0.0167637182975288,-0.877777777777892,0.448853727619395,-1.95559872574391,0.0505239104589849,-0.443518518519317,0.671388253446498,-0.660599163364214,0.50887568098078,0.792592592592504,0.445549817164662,1.77890902893039,0.0752672015043796,0.619999999999941,0.268114174833531,2.31244767414812,0.0207613568862255,0.511851851851784,0.184094591424096,2.78037419726601,0.00543381483915762,-2.14370370370327,0.211880970023434,-10.1174905111402,5.15753477669188e-24,-3.21444444444416,0.276662023671439,-11.6186688790421,4.00551659844387e-31,-3.29333333333299,0.449551377872621,-7.32582190920599,2.44852833726652e-13,2.63259259259292,0.636068804399573,4.13884877608169,3.5023120869934e-05,1.31185185185134,0.384485948343489,3.4119630574363,0.000646021200973511,0.0142592592591933,0.220488365313102,0.064671254825372,0.948436283310987,-0.135000000000047,0.178026319187956,-0.758314841400037,0.448269894311409,-1.88203703703696,0.251167367013707,-7.49315908118848,6.95327433464268e-14,-2.44148148148136,0.313306375323862,-7.79263262344284,6.82505990022197e-15,-1.43388888888884,0.467089372349942,-3.06983839447021,0.00214411265574338,3.29666666666723,0.63977444292185,5.15285770342959,2.58556138739874e-07,-0.0533333333337958,0.371918216702669,-0.143400701924835,0.885974920192394,-0.702592592592656,0.229309550768607,-3.06394823171422,0.00218676362710075,-0.570740740740764,0.189208337965385,-3.01646717516845,0.00256003906646086
"24",-0.521481481481459,0.213241624243189,-2.4454957297021,0.0144723766814798,-0.451851851851792,0.314043972022511,-1.4388171469803,0.150215243596513,0.181481481481631,0.553462333676314,0.327902136133023,0.742988489501971,0.385925925924905,0.791721349911126,0.487451710084901,0.625942662743425,-0.217037037037433,0.560879608459225,-0.386958330743471,0.698790452406107,0.111111111111039,0.323638900214462,0.343318158099692,0.731362098161105,0.194814814814788,0.21972795406561,0.886618253208767,0.375293255911412,-0.362222222221963,0.26607240587248,-1.36136710995715,0.173410353817552,-0.269629629629366,0.345256720282933,-0.780954037356344,0.4348371519033,0.309629629630186,0.553251729394236,0.559654155928631,0.575720527084363,0.796296296296558,0.788936259359022,1.00932906410401,0.312826916949709,-0.229629629629875,0.456958634058728,-0.502517323264677,0.615308233252507,0.834074074074059,0.257022349835876,3.24514220108354,0.00117551093798338,0.854074074074069,0.208250545525927,4.10118529061782,4.12379396689965e-05,-0.456296296296276,0.297347164913021,-1.53455741348585,0.124905626563744,-0.297777777777655,0.371630592558391,-0.801273586568004,0.422981129693379,0.617037037037355,0.565556271975363,1.09102677772838,0.275271940491163,1.01851851851969,0.775844748963555,1.31278650771345,0.189267321528202,0.178518518518172,0.465224035764483,0.383725914386217,0.70118496766337,0.403703703703705,0.274881953292975,1.46864389919927,0.141942372882302,0.310370370370346,0.225245765088371,1.37791878239565,0.168241080159676
"25",-0.550000000000022,0.194397783055561,-2.82925037186677,0.00466954844510068,-0.507222222222221,0.283930426480498,-1.78643137514203,0.074041928572714,0.435740740740853,0.484294608244931,0.899743117768674,0.368265906329242,-0.222592592593004,0.712887864774486,-0.312240681307457,0.754860302014642,-0.276481481481725,0.483660099551315,-0.571644180982086,0.567568355938175,0.426481481481482,0.284361487954562,1.4997863618917,0.133682769894633,0.396296296296298,0.196744775300553,2.01426592239059,0.0439926423110194,-0.991851851851698,0.235237211814869,-4.21639010341731,2.49143512838928e-05,-1.00888888888872,0.302800367210319,-3.33186151055082,0.000863960836346789,0.0255555555559806,0.483245626869241,0.0528831594846394,0.957825438022598,2.6822222222227,0.678185257074413,3.95499930770155,7.67523194936826e-05,0.144444444444156,0.410713779543147,0.351691254685508,0.725072875702474,0.960000000000104,0.231820816836004,4.14112939943281,3.46768988415027e-05,0.726666666666779,0.187135596151779,3.88310231516512,0.000103405520598949,-1.14685185185195,0.276341066204621,-4.15013181936103,3.33417209739035e-05,-0.978148148148121,0.340915053443534,-2.86918438557637,0.00411887235779811,0.87000000000033,0.50575788729278,1.72019067197798,0.0854105466757676,2.19888888888993,0.684843846181815,3.21078870920622,0.00132543723280918,0.563703703703279,0.394567016698135,1.42866402878917,0.153113701628168,0.564814814814843,0.24118820692845,2.34180112704432,0.0191989872627004,0.214259259259247,0.199153561593085,1.07584949797196,0.282005274838477
"26",-0.202222222222211,0.198649543230559,-1.01798483366007,0.308695319944575,-0.0725925925925503,0.298787408440833,-0.242957335355467,0.808040503679894,0.474074074074237,0.547204805187207,0.866355831637935,0.386303629332654,0.18222222222133,0.789273850024652,0.230873254214159,0.817415217256645,-0.572592592593006,0.556734634764258,-1.02848387155842,0.303732532234337,-0.0622222222223252,0.315681961095862,-0.197104142429698,0.843747693777029,0.0392592592592336,0.207914090073088,0.188824428615842,0.850232005189501,-0.22296296296256,0.252452892478286,-0.883186406674812,0.377144320273536,0.108148148148677,0.33141728722893,0.326320177963356,0.744184939370794,0.960740740741539,0.532970216664988,1.80261618886189,0.0714609240989326,1.16370370370392,0.783439140090918,1.48537856248652,0.137456570721555,-0.536296296296798,0.452901692791726,-1.18413400707562,0.23637162698938,0.374074074074097,0.246302107446742,1.51876115861081,0.128835663041525,0.519259259259323,0.197454543528278,2.6297660716273,0.00854975827031616,-0.18962962962955,0.280054258754996,-0.677117464567631,0.498337888257126,0.0903703703705215,0.354088995061955,0.255219370358317,0.798555835474401,0.850370370370717,0.546604105526392,1.55573359543612,0.119784504649522,1.42148148148267,0.772676668534579,1.83968474702178,0.0658267500555785,-0.268148148148523,0.461993433057448,-0.580415497194262,0.561639850319416,-0.12814814814819,0.262227872611091,-0.488690034633527,0.625065579462971,-0.0548148148148508,0.2112605852062,-0.259465412165497,0.795278368132792
"27",-0.0898148148147947,0.183320448689323,-0.489933422359257,0.624185443913337,0.2205555555556,0.273056880671412,0.80772751455038,0.419255383820951,1.19351851851856,0.48180692632504,2.47717177422514,0.0132495783970872,-0.382407407407872,0.71272535372285,-0.536542449921846,0.591588628150263,-1.22481481481499,0.481639048363087,-2.54301394161807,0.0109962425530571,-0.174444444444482,0.279478422645746,-0.62417857805645,0.532516185623055,0.0951851851851709,0.188882220452585,0.503939359443656,0.614308569090214,-0.486296296296145,0.225021685185672,-2.16110858780072,0.0306967096654713,-0.281296296296086,0.292195841956409,-0.962697807103123,0.335708797197575,1.73185185185222,0.467302344917346,3.70606283210185,0.000210974127088934,3.27592592592604,0.675071234593487,4.85271147406945,1.22541138848788e-06,-0.92851851851894,0.408932206903953,-2.27059278492345,0.0231803723050727,0.119074074074122,0.223277079190682,0.53330182616923,0.593829551408957,0.19407407407414,0.178435350332826,1.087643640748,0.276763267385891,-0.534074074074043,0.263061298875759,-2.03022670516913,0.0423443928908759,-0.121666666666506,0.327818048405362,-0.371140842483633,0.710535874388752,1.40259259259284,0.491589490525537,2.85317855573638,0.00433209259210643,2.97092592592658,0.685544118133384,4.3336757581932,1.47229968830269e-05,-0.53240740740787,0.391727436394578,-1.35912718370737,0.174118930105601,-0.269444444444513,0.232632148699809,-1.15824251269848,0.246776490873549,-0.226296296296364,0.189021395857974,-1.19719937136851,0.231240558103223
"28",0.824814814814896,0.223881379450861,3.68415996380767,0.000229957046551362,0.773333333333521,0.314768553485832,2.45683161411589,0.0140237907377686,-0.958888888888934,0.538259267438385,-1.78146285051878,0.074849380840628,-4.78111111111129,0.776765647595383,-6.15515262024276,7.61810283302348e-10,-5.11240740740733,0.55516874595489,-9.20874498908254,3.55908801088349e-20,-3.49296296296282,0.337964821919267,-10.3352856167889,5.49882433233845e-25,-2.31462962962955,0.236235553731498,-9.79797322235553,1.26533631001669e-22,-0.392222222222316,0.29556845895225,-1.32700973443747,0.184517957358781,-0.73555555555502,0.363675232337332,-2.022561588337,0.0431293220814032,-0.890740740740175,0.528073178679435,-1.68677519840654,0.091659448888923,-0.183333333332783,0.760307318876375,-0.2411305649454,0.809455962880366,-3.69351851851859,0.467385802855108,-7.90250473154316,2.84912697753749e-15,-2.20925925925918,0.263656530603342,-8.37930793598622,5.60907102184501e-17,-1.75407407407401,0.21250027113566,-8.25445569880807,1.60286302945195e-16,1.26796296296217,0.321597166896732,3.94270563760695,8.07937404217446e-05,1.57092592592512,0.390115779573816,4.02681974987344,5.67083005608453e-05,2.80722222222133,0.546758920957715,5.13429614884771,2.85389339404777e-07,2.87537037036975,0.755526110658375,3.805785570884,0.000141702121115502,-2.12185185185215,0.47674516925659,-4.45070446159076,8.59702813345003e-06,-1.71703703703715,0.275372993584209,-6.23531383629338,4.58310147134126e-10,-1.45000000000016,0.220265801641372,-6.58295563448831,4.70607903388948e-11
"29",0.437037037037231,0.220306518469424,1.98376807038457,0.0472929589760909,0.455740740741174,0.307409185878512,1.48252154352109,0.138214570804099,-0.311666666666331,0.503289950727319,-0.619258672294038,0.535751783225462,-4.34685185185215,0.731579498304757,-5.94173546678773,2.85869496354846e-09,-5.55592592592605,0.520838455505697,-10.6672728697263,1.65813077986286e-26,-3.53814814814811,0.327984223520136,-10.7875559079472,4.54065743392182e-27,-2.22999999999995,0.231648655113361,-9.62664773041167,6.75357880200253e-22,0.37055555555546,0.277335987129278,1.3361250351644,0.181520946487296,-0.103888888889067,0.339129269151831,-0.306340084266082,0.759348352496632,-1.04314814814848,0.516765864648328,-2.01860885075753,0.043538876326468,-1.92574074074083,0.684773961385531,-2.81222834005604,0.00492390811633034,-3.68796296296329,0.446079923455252,-8.26749371367584,1.4374293263683e-16,-2.16666666666662,0.258491312108521,-8.38197094127866,5.48393826513625e-17,-1.63592592592584,0.208331034567865,-7.85253108985513,4.2453063660624e-15,1.54574074073988,0.304729929924593,5.07249399861177,3.95529282701455e-07,1.81759259259163,0.367523238561733,4.94551745817381,7.6449282607138e-07,1.67574074073973,0.517934902494623,3.23542733395366,0.00121623607075729,-0.101111111111777,0.693738877217628,-0.145748082502313,0.884121473713445,-2.10240740740731,0.45522822567519,-4.61835907536059,3.88771817028675e-06,-1.23037037037027,0.272713418940759,-4.51158720076602,6.46462295535513e-06,-1.0385185185184,0.223188705075477,-4.6530962136601,3.28714973660719e-06
"30",1.52648148148167,0.219592325905028,6.95143364045364,3.70756767412582e-12,1.50166666666693,0.315041459160218,4.7665684087098,1.88476240072235e-06,-0.200555555555555,0.540936150597725,-0.370756429079374,0.710822195169177,-3.52462962962982,0.778283523972954,-4.52872188741376,5.96240566126898e-06,-3.99629629629647,0.553787616595002,-7.21629768622843,5.49929527684339e-13,-3.43000000000015,0.330409011310112,-10.3810727994366,3.41449486834359e-25,-2.51907407407424,0.2293660197819,-10.9827692718808,5.38439257838671e-28,-0.158148148148085,0.278427726868697,-0.568004307353577,0.570037302300639,-0.707407407406686,0.347179776777144,-2.03758241327741,0.0416025447562082,-1.03981481481401,0.501921228902248,-2.07166932765165,0.0383068376042065,-2.44796296296236,0.744451118722256,-3.28827897681709,0.00100945357252388,-4.90814814814856,0.44894283692396,-10.9326794960755,9.33849934455359e-28,-2.43592592592608,0.257191328889718,-9.47125992327134,3.00895517890234e-21,-1.73666666666675,0.20810814834143,-8.34502003168808,7.49518391934699e-17,1.2429629629629,0.302549383786207,4.10829778401143,3.99894101996615e-05,1.10574074074075,0.368734532288765,2.99874474429431,0.00271369256381772,1.09240740740733,0.523737415799392,2.08579218221398,0.0370078789318267,0.0188888888886952,0.731109577469792,0.025835920456774,0.979388423617398,-4.07148148148203,0.452552294505577,-8.99670939892197,2.49211552030226e-19,-2.82148148148179,0.25754840075413,-10.9551504618944,7.29671056980452e-28,-2.13870370370404,0.20736033712596,-10.3139478520663,6.86128619621754e-25
"31",1.35870370370393,0.219674654910854,6.18507266691875,6.30656788685455e-10,1.26092592592638,0.311439140150016,4.04870731828701,5.16612025421744e-05,1.38648148148192,0.509433788050801,2.72161272770479,0.00650105992630715,-3.50759259259266,0.736027236505417,-4.76557444972601,1.89406952587526e-06,-4.32018518518529,0.522216917995263,-8.2727790623292,1.37526834797199e-16,-3.03240740740753,0.320689715292831,-9.45589229339194,3.48362699805542e-21,-2.23962962962973,0.224922450266706,-9.95734141689302,2.59683290721574e-23,1.36148148148158,0.261183277637446,5.21274368633768,1.87592162425439e-07,0.971851851851929,0.324240281959858,2.99731990725398,0.00272640473916236,1.91037037037046,0.493857636956156,3.8682612708894,0.000109900565974695,-3.10148148148139,0.675683426910584,-4.59013993529817,4.45169614856041e-06,-4.66481481481528,0.427950233167651,-10.9003675036855,1.33038425415086e-27,-2.48148148148152,0.251922865539959,-9.85016376406658,7.55376021399244e-23,-1.71425925925925,0.205573668853215,-8.33890482580857,7.89191474804454e-17,1.95037037037021,0.287428598776503,6.78558215387177,1.18282105937608e-11,1.83462962962953,0.350771646169175,5.23026775301189,1.70669488986015e-07,0.50574074074061,0.507815926952483,0.99591350703723,0.319302109572684,-3.17166666666681,0.686198996839807,-4.62208001071623,3.81867468773638e-06,-3.52648148148145,0.427400694550647,-8.25099614119499,1.64982426313042e-16,-1.88962962962961,0.254367195533713,-7.42874734953458,1.13250022928181e-13,-1.63203703703695,0.211833761499027,-7.70432921309593,1.36555396546493e-14
"32",-5.75499999999965,0.221979991669249,-25.925760050368,3.35162083413278e-146,-7.6981481481476,0.311968476946202,-24.676044911663,8.40687843520861e-133,-10.1049999999997,0.535701450948114,-18.8631185936034,8.41253585968611e-79,0.0824074074076005,0.76424824200001,0.107828062766547,0.914132973895169,9.12944444444418,0.541828983693145,16.8493098730475,2.43507223539628e-63,7.09296296296268,0.322522041240793,21.9921805519863,3.73380794346179e-106,5.56148148148129,0.228502742907724,24.3387952840775,2.7113186807596e-129,-9.08944444444359,0.297373063329706,-30.5657961843231,2.2979977267751e-201,-10.0344444444428,0.36582005888696,-27.4300006264651,3.72061191819324e-163,-10.1192592592574,0.513670528787589,-19.6999023540279,1.01207471333285e-85,-4.87055555555452,0.7253449243692,-6.71481303848679,1.92468014657018e-11,9.4605555555551,0.457406676675691,20.6830289936122,3.20675304620711e-94,5.46962962962945,0.259416877286725,21.084324531376,8.36754481057274e-98,4.21611111111091,0.210014324794605,20.0753501706814,6.40410309556806e-89,-9.03351851851816,0.319853263961847,-28.2426960620158,1.0910103943999e-172,-9.98574074074018,0.382821249257094,-26.0846041334398,5.98943413206669e-148,-10.2138888888884,0.525705495753375,-19.4289178473418,1.8958355283447e-83,-4.99203703703688,0.726667894904498,-6.86976412752205,6.58633473867259e-12,8.72037037036954,0.460608540144123,18.9322811245336,2.31195432970914e-79,5.19703703703673,0.266268899707414,19.5180024507084,3.4201709457233e-84,4.21925925925896,0.213600096284355,19.7530775156678,3.59504355660236e-86
"33",-6.2418518518514,0.219591493018782,-28.4248345236103,7.34018041853703e-175,-8.52129629629554,0.307730297397465,-27.6907940763772,3.4667985924798e-166,-11.7862962962952,0.508560942935256,-23.1757795403405,1.51491177124694e-117,-0.0875925925924639,0.718276233160181,-0.121948337629222,0.902940943895055,10.9411111111107,0.511495016727344,21.3904549473704,1.39480416608387e-100,7.9855555555552,0.313590623409375,25.4649053875903,3.46195526643454e-141,6.1109259259256,0.224032655960107,27.2769427284466,2.17163556083866e-161,-10.4209259259249,0.280029936005698,-37.21361392488,7.93139608877813e-295,-13.5714814814805,0.344283804558019,-39.419459474439,0,-14.0909259259248,0.498681252553301,-28.256377904278,7.50095683112285e-173,-4.25222222222149,0.6711312127786,-6.33590293709713,2.40100306151393e-10,10.3566666666659,0.433088496056747,23.9135113515203,6.19770473522117e-125,6.08203703703665,0.254333718941108,23.913608712044,6.18359897628736e-125,4.76055555555517,0.207426823250206,22.9505301241239,2.46738831526599e-115,-10.8346296296293,0.303620690231695,-35.6847539650913,7.25118020667583e-272,-13.4783333333328,0.363374266768538,-37.0921514426288,5.68815292081889e-293,-14.2327777777771,0.504844100442018,-28.1924217106143,4.31606418207552e-172,-3.06425925925881,0.679549998601579,-4.50924768679955,6.53625689376162e-06,9.59518518518492,0.437712213286489,21.9212187686998,1.72583847869314e-105,5.43703703703694,0.265285576921253,20.4950344460335,1.45229175339769e-92,4.57148148148128,0.218547405811046,20.9175737617025,2.62825848610623e-96
"34",-0.792037037036937,0.191146412912373,-4.14361444177365,3.43033455603121e-05,-1.09962962962944,0.27853075076425,-3.94796490732966,7.90407846461578e-05,-0.777222222222309,0.512614215307453,-1.51619326778941,0.129483524894714,0.162962962962872,0.800060649201614,0.20368826179052,0.838598824845252,0.680740740740914,0.518695790427192,1.31240845463632,0.189394777622597,1.08296296296296,0.293033593319253,3.69569560505337,0.000219768019947884,0.884814814814816,0.195331837972633,4.5298033541198,5.93199383696432e-06,-3.7592592592588,0.247206923782953,-15.206933534594,5.52772620935388e-52,-5.10018518518407,0.320798086491372,-15.898427702502,1.25624816669556e-56,-5.54462962962836,0.492985036228089,-11.2470546206661,2.8297413105146e-29,4.2403703703714,0.761990998805493,5.56485624767046,2.6514023999268e-08,1.31666666666662,0.420806259364542,3.12891416742448,0.00175661452718496,-0.453703703703696,0.230836149110207,-1.96547943401658,0.0493701686465544,-0.623518518518524,0.185117301706014,-3.36823469644527,0.000757688599045849,-4.25999999999988,0.276104348957697,-15.428949294285,1.87741640255842e-53,-5.21759259259236,0.343022728302976,-15.2106323053436,5.22688468479953e-52,-3.58870370370365,0.508119407352316,-7.06271725066258,1.67685288873206e-12,6.24962962962962,0.749967052673155,8.33320558197012,8.28027002193360e-17,-0.255925925926193,0.429869278456548,-0.595357562757446,0.551610041942633,-1.31388888888904,0.237550615490984,-5.53098499102355,3.21722380884986e-08,-0.843518518518698,0.189098699814298,-4.46073145583267,8.20473489668496e-06
"35",-0.510185185184982,0.189345608894247,-2.69446536502429,0.00705502038693381,-0.653148148147722,0.27336161263196,-2.38931919467086,0.0168872241503936,-1.01055555555518,0.479207219412005,-2.10880703507586,0.0349714677212533,0.159259259259086,0.751695985165971,0.211866582237928,0.832212902865958,1.0205555555556,0.482425074045813,2.11546955260184,0.0344001151234625,0.636111111111122,0.283419990008196,2.24441159246646,0.0248149119335637,0.627222222222163,0.191135849208686,3.28155196850251,0.00103383314017418,-2.52314814814764,0.230449723770144,-10.9488009222536,7.82394563620084e-28,-5.29055555555521,0.298894635772592,-17.7004031600635,1.14277717301895e-69,-4.46351851851811,0.482007126533057,-9.26027494784767,2.20313462825132e-20,4.0761111111116,0.686633467616245,5.93637115484983,2.95362913014922e-09,0.801111111110981,0.395005196132053,2.02810271600368,0.0425606753792697,0.0337037037036749,0.22399374290893,0.150467166028731,0.880397305005952,0.000925925925878248,0.18087749640604,0.00511907752084151,0.995915627028854,-3.49037037037033,0.260343698871503,-13.4067787524716,7.71535746097857e-41,-5.50666666666645,0.323073119522849,-17.0446451094394,9.13617224541261e-65,-4.67296296296287,0.480269725384657,-9.72987201977016,2.47063984099199e-22,6.12370370370383,0.69036770383454,8.8702059347369,7.7937169753818e-19,-0.201851851851666,0.405042674592729,-0.498347123681791,0.618243918699645,-0.86203703703692,0.232735822839785,-3.70392931573041,0.000212756398345523,-0.335925925925877,0.192345371607779,-1.74647262431082,0.0807415215049332
"36",-3.86833333333313,0.205366563593146,-18.8362373389893,1.38807950645928e-78,-4.5498148148146,0.300642249697394,-15.1336507739486,1.67063660587543e-51,-5.1614814814813,0.557060239312982,-9.26557150775457,2.0968482003892e-20,1.15611111111126,0.84948119917933,1.36096138705384,0.173538539761581,5.10999999999988,0.563976585356326,9.0606598441872,1.39205728962834e-19,3.79388888888892,0.315330355624772,12.0314737265684,3.01971319222105e-33,3.30444444444435,0.213012420164575,15.5129191147225,5.15907568554699e-54,-6.12037037037028,0.279656440083111,-21.8853188882451,3.73737315860779e-105,-5.67666666666593,0.357459027635027,-15.8806079237197,1.66439355554383e-56,-3.31129629629554,0.537156626189996,-6.1644893404411,7.18260644743942e-10,-2.8194444444435,0.810815773686528,-3.47729353071705,0.000507390155707006,6.06074074074069,0.455364280813196,13.3096533832591,2.8171059242253e-40,4.65518518518515,0.243143470335186,19.1458367307489,4.16310290987947e-81,3.82796296296295,0.194600606077773,19.6708686582049,1.77890171270222e-85,-5.20888888888878,0.307856928312079,-16.9198364884888,7.47442716847112e-64,-4.41388888888881,0.379130542640915,-11.6421348123075,3.04740564117971e-31,-2.48796296296304,0.553395267656601,-4.49581539339599,6.96246900205247e-06,-3.02629629629617,0.802152916838232,-3.77271743675088,0.000161863056015616,6.26666666666615,0.462401443222894,13.5524375161723,1.0873929621709e-41,3.1837037037034,0.254261984723168,12.5213515782538,7.36681794115676e-36,2.15388888888863,0.202941338868162,10.6133570464314,2.94958368330745e-26
"37",-6.23925925925877,0.205566587837178,-30.3515241698747,1.24232969025287e-198,-8.48925925925867,0.29985014549411,-28.3116729700751,1.64727777374986e-173,-11.2374074074065,0.526805279932285,-21.3312353453461,4.84080354044092e-100,0.982222222222265,0.797086085474098,1.23226617566414,0.217861618373701,11.3870370370366,0.530281228812113,21.4735812213169,2.41839756049837e-101,7.92703703703692,0.309197793690385,25.6374307928428,4.7011019351734e-143,5.8544444444442,0.211202253104471,27.7196116915869,1.59731680941583e-166,-9.46537037037003,0.264830939479502,-35.741180350654,1.06737910577423e-272,-10.1568518518514,0.337539710936683,-30.0908353084317,2.48404153256583e-195,-9.20018518518502,0.529964331106027,-17.3600082971327,4.22006798718124e-67,-8.44203703703637,0.737222110277427,-11.4511446677305,2.77639052948068e-30,10.0007407407403,0.434895428741043,22.995736629587,8.91213108219981e-116,6.92722222222206,0.241328101859433,28.7045817244151,3.19282226810729e-178,5.63666666666654,0.193791081785168,29.0863058028398,7.37553072069228e-183,-9.18370370370333,0.292827980557591,-31.3621112511724,1.12086547649179e-211,-9.69203703703682,0.359569037815946,-26.9545929090756,1.06201469035712e-157,-9.64111111111105,0.531488376226534,-18.1398343639443,4.702183390342e-73,-8.10518518518485,0.743117847913147,-10.9069984093992,1.2372905300962e-27,10.9005555555552,0.439581673639399,24.7975659797348,4.45847018048053e-134,6.26925925925905,0.255342002887238,24.5524010478903,1.64538766637979e-131,4.87518518518502,0.210409220541121,23.170016849296,1.7267564282207e-117
"38",-3.57925925925883,0.192678026519618,-18.5763749188826,1.69601240733088e-76,-3.71129629629581,0.289090136547568,-12.8378516839682,1.33431046731673e-37,-3.47962962962924,0.553778178971684,-6.28343579028447,3.36801280512984e-10,0.932592592592691,0.850409334538284,1.09663964718711,0.272809839087443,3.60462962962921,0.563181880195437,6.40047159965146,1.57729748585519e-10,3.25592592592566,0.309536606616064,10.5187104088279,8.05170124762137e-26,3.20018518518488,0.202683562155104,15.789071156821,7.02708879320239e-56,-4.47777777777726,0.265310329960882,-16.8775101159366,1.51936900704724e-63,-3.85018518518406,0.343459079489377,-11.2100259248006,4.29324651663418e-29,-1.79648148148052,0.52263412226594,-3.43735972249892,0.000588400458108167,-2.44018518518403,0.80960081105422,-3.01405970926159,0.00258043403082545,4.16648148148103,0.453194524755464,9.1935830066111,4.09649668468851e-20,4.33907407407371,0.234455570999235,18.5070205650514,6.04914594978141e-76,3.81518518518488,0.185512273842509,20.5656752847727,3.47939589380891e-93,-3.89129629629574,0.291115398743202,-13.3668514722861,1.315391090264e-40,-3.3599999999996,0.36243478568057,-9.270633318737,2.00001639906003e-20,-2.02407407407395,0.541443995097421,-3.73828889488333,0.000185702539360598,-2.98499999999984,0.803683141124716,-3.71415032524195,0.000204344618455361,4.53111111111034,0.460618687601056,9.83701103120408,8.60466819251944e-23,3.19944444444385,0.24574801995408,13.0192074184024,1.28225444083083e-38,2.74351851851808,0.192209585858877,14.2735780125577,4.91393426990809e-46
"39",-5.95166666666618,0.194489531406325,-30.6014756867918,8.02708603350456e-202,-7.80518518518471,0.287380012652972,-27.1598052805778,4.81064672473443e-160,-10.0399999999992,0.523597111788004,-19.1750484751801,2.39505105399384e-81,0.946666666666707,0.799224907732168,1.18448093585185,0.236234347747879,10.4335185185182,0.529694705294856,19.6972301482801,1.06603353788542e-85,7.41407407407392,0.30327746375121,24.4465051321979,2.07782120871521e-130,5.69148148148124,0.20196248991671,28.1808839048698,5.91584436778716e-172,-7.89425925925871,0.253346965345324,-31.1598729769604,4.91546465687206e-209,-7.84240740740692,0.327654812766736,-23.9349678437047,3.75021381223734e-125,-6.45314814814803,0.516773141604425,-12.4873907496681,1.12637410540235e-35,-9.42962962962893,0.737405897249974,-12.7875701357896,2.54003266245328e-37,9.10703703703649,0.430087841446083,21.1748302542474,1.27430199232761e-98,6.95518518518501,0.229404066012378,30.318491324429,3.26562355766212e-198,5.70425925925914,0.183087918053671,31.155847528874,5.54616392967801e-209,-7.40629629629567,0.280478056850142,-26.4059740696678,1.62322110470642e-151,-7.39574074074044,0.349005038742537,-21.1909282667873,9.11055861664282e-99,-7.68962962962957,0.520254907461043,-14.7805037864162,3.20585563589611e-49,-10.2159259259258,0.743686083001444,-13.7368792551493,8.83049578576395e-43,10.4394444444443,0.438079239359011,23.8300369123154,4.35762609837409e-124,6.74518518518485,0.243975176692858,27.6470142438975,1.12349375770937e-165,5.20203703703691,0.199222301786505,26.1117203766255,3.00608878811827e-148
"40",-0.503518518518409,0.205271774021979,-2.45293597192032,0.0141765461819923,-0.51407407407397,0.285256357014595,-1.8021476522175,0.0715345917806421,-0.193333333333699,0.46534390325533,-0.415463342231904,0.677806421285951,0.0307407407398711,0.648142520908858,0.0474289832069108,0.962171720332929,0.662592592592158,0.481425804729645,1.37631299793797,0.168737459283008,0.990370370370208,0.301385222152705,3.28606148402462,0.0010174306282185,0.987962962962807,0.215233171630088,4.59019841356413,4.45045016884213e-06,-0.705185185184933,0.258701855457071,-2.72586056230259,0.00641801252943596,-0.744259259259152,0.317895425596541,-2.3412078291549,0.019229519107456,-0.820000000000141,0.463192414501207,-1.77032260099329,0.0766859773416561,0.107222222222095,0.628139840416351,0.170698012326402,0.864462649984126,1.09407407407355,0.412500347022175,2.65229855434457,0.00799978496325548,0.994259259259038,0.24384645951511,4.07739879117428,4.56875840979945e-05,0.878333333333138,0.197883345479971,4.43864202519275,9.09272900206939e-06,-1.09296296296383,0.282616963311917,-3.86729427050545,0.000110336852211416,-1.06296296296403,0.341944588806141,-3.10858249482828,0.00188204639487994,-0.731666666667886,0.475396108931496,-1.53906742802836,0.123800883850082,0.0135185185181623,0.6329762762174,0.0213570698082833,0.982960994798349,0.645740740740541,0.421064836401005,1.53358980593089,0.125143643689903,0.765370370370304,0.256285429971912,2.9863982921471,0.00282566723927402,0.593333333333274,0.207840240511645,2.85475676833636,0.00431063244705588
"41",-1.01499999999994,0.203235258839429,-4.99421215489909,5.9486396183024e-07,-1.15370370370369,0.28764892480239,-4.01080485350768,6.06934055640435e-05,-0.716296296296622,0.469685858870609,-1.52505399676925,0.127258671557549,-0.144259259259577,0.652961506890965,-0.220930725222162,0.82514823332101,1.23962962962939,0.475855722981058,2.60505352728254,0.00919159818774349,1.64925925925923,0.29278959747385,5.63291617423851,1.79150307363249e-08,1.44777777777772,0.207742957280318,6.96908235413325,3.27181880870661e-12,-1.39129629629581,0.244925697339745,-5.68048314818471,1.35852260221308e-08,-1.57388888888844,0.303223120449853,-5.19053061176031,2.11385231298907e-07,-1.12518518518491,0.444316872350804,-2.53239355784926,0.0113349304041709,-0.492777777777347,0.619971187267803,-0.794839805296446,0.426714472207373,1.64370370370337,0.399383969702768,4.11559759127703,3.87453536582104e-05,1.52851851851837,0.236562823054149,6.46136404184058,1.05732630608604e-10,1.26944444444427,0.193341691023139,6.5658081178795,5.27977626713867e-11,-1.79574074074087,0.266467719189256,-6.73905547060079,1.62992383953678e-11,-1.81166666666684,0.323763218751976,-5.59565312468276,2.22165154759441e-08,-1.56888888888919,0.456988803314716,-3.43310137471517,0.000597715500342742,-0.469814814814254,0.620217995726586,-0.757499488972204,0.448758032575869,1.32759259259255,0.402444601591249,3.29882072549441,0.000972317216234628,1.44148148148151,0.242921299385759,5.93394438909384,2.99757848569066e-09,1.22074074074075,0.199919842021779,6.10615098729301,1.03612955406505e-09
"42",0.0598148148148621,0.178849455624312,0.334442252597671,0.738048752577376,0.15925925925931,0.262697068006099,0.606246809178747,0.544356548673353,-0.111111111111534,0.452183424855874,-0.245721326797744,0.805900041453248,-0.0425925925937243,0.684929982991814,-0.0621853235387322,0.950415762505512,0.110740740740459,0.469089061837739,0.236076152163115,0.813375572617254,0.121296296296204,0.279411934461374,0.434112796685037,0.664210395645839,0.129629629629553,0.187977524705833,0.689601748040946,0.490451266691679,-0.268703703703614,0.216894220858849,-1.23886981699933,0.215405704549532,-0.329629629629685,0.277142706349418,-1.18938590869533,0.234299489159308,-0.187222222222546,0.460138626896061,-0.406882211748845,0.684098092526059,0.579814814814777,0.665421281719931,0.8713499714288,0.383571719618253,0.198333333332954,0.38761677226312,0.511673765237183,0.608884009228906,0.18703703703692,0.220150672982706,0.849586487757922,0.395563414513226,0.222222222222141,0.176871024186939,1.25640829663128,0.208980078590375,-0.436111111112073,0.243729124190142,-1.78932703492524,0.0735746382344878,-0.321851851852976,0.307954407616498,-1.04512825240607,0.295974115998643,-0.285925925927248,0.471582038042967,-0.606312163868287,0.54431315845894,0.231296296295783,0.659887195342486,0.350508841402414,0.725959900611053,0.0938888888888069,0.400484066839173,0.234438512447765,0.814646542280496,0.0955555555555558,0.232191367321811,0.411537933807496,0.680681768955322,0.0320370370370188,0.187053156805624,0.171272367620666,0.864011035932461
"43",-0.00370370370368652,0.180300711230666,-0.020541814163718,0.983611325236259,-0.133703703703712,0.263966036245289,-0.506518587033176,0.612497250012172,-0.198888888889252,0.454817651694496,-0.43729368934618,0.66190226566684,-0.0862962962968313,0.684857101896832,-0.126006280810725,0.89972799748575,0.41388888888881,0.4648728768574,0.89032703238518,0.373299142979619,0.284999999999976,0.274316543072195,1.03894572601467,0.298840337712919,0.131851851851823,0.183342122406498,0.719157442496967,0.472050847770238,-0.397037037036781,0.204323764716287,-1.94317600592416,0.0520064526986672,-0.537777777777533,0.267466088272443,-2.01063911036733,0.044374639151186,0.190185185185253,0.437342377653506,0.43486566795942,0.66366380584737,-0.220555555555058,0.652914360578954,-0.33780166109302,0.735515582146173,0.249999999999753,0.372983997841811,0.670270042270775,0.502692043745896,0.200740740740659,0.215648151821214,0.930871602864866,0.351929252409233,0.192962962962897,0.173910258425959,1.10955480550361,0.267201918664676,-0.530370370370523,0.230060752737798,-2.30534919171977,0.0211554238226421,-0.350185185185315,0.292692468204083,-1.19642704622363,0.231541649743482,-0.278518518518847,0.453502992912057,-0.614149240185627,0.539122473972165,-0.148518518518175,0.642411987472371,-0.231188896556142,0.81717000619224,0.0405555555556018,0.382216364696137,0.106106277233429,0.915498908444989,0.0874074074074445,0.222793535905366,0.392324701218315,0.69482176281511,0.175185185185192,0.184215029131998,0.9509820453339,0.341622968530789
"44",-0.0305555555554788,0.195333803301393,-0.156427382455318,0.87569745698087,0.0622222222223159,0.283773461658562,0.219267234711264,0.8264437292582,-0.313518518518749,0.488098721818313,-0.642326038779202,0.520667583328668,-0.612592592593534,0.719882257381808,-0.850962204321463,0.394798751235435,0.257592592592235,0.506381188929216,0.508693052237851,0.610972021137795,0.132962962962812,0.303195858422557,0.43853818998248,0.661000099107633,0.369629629629504,0.207124436043164,1.78457760315869,0.0743423548244917,-0.274629629629766,0.244495884895452,-1.12324847408863,0.261343100836428,-0.135185185185438,0.310004377655152,-0.436075084513217,0.662786135679583,0.130185185184751,0.49985266277974,0.260447117478131,0.794521113552535,-0.225925925926458,0.705375778939184,-0.320291584531337,0.748750061715875,0.461851851851578,0.417355923573278,1.10661386544448,0.268471887646524,0.574814814814738,0.235040336631555,2.44560071285044,0.0144681648796839,0.618888888888834,0.188471886233566,3.28371992903954,0.00102591728565858,-0.315925925926803,0.273838013383459,-1.15369638430881,0.248636037609861,-0.0887037037047771,0.342019884376526,-0.259352475562866,0.795365496029725,0.0446296296284913,0.512429269702296,0.0870942240563651,0.930597335607615,-0.838333333334099,0.69943798883839,-1.19858135633494,0.230702484436829,0.38518518518498,0.428378997882194,0.899169163495985,0.368571491171421,0.695185185185109,0.252803412160924,2.74990428033694,0.00596568419061096,0.469259259259165,0.204888795008862,2.29031196771336,0.0220117818025017
"45",-0.343703703703671,0.192938158717337,-1.78141901005292,0.0748565373912178,-0.374074074074024,0.284018009674343,-1.31707871096956,0.187824687881859,-0.701481481481663,0.49061531361137,-1.42979940091582,0.152787484438329,-0.54574074074129,0.724262323606629,-0.753512536761059,0.451149296482725,0.530555555555386,0.500297397323343,1.06048034307979,0.288936690304775,0.442962962962895,0.29205299752163,1.51672116609619,0.129350133466571,0.595925925925896,0.198771075557911,2.9980515236095,0.00271987059082131,-0.628333333333359,0.230005547227588,-2.73181817094016,0.00630314630148594,-0.372222222222249,0.295191895926341,-1.26095000357032,0.207338992345043,0.640555555555592,0.473166443637465,1.35376370021366,0.1758243952049,0.0449999999999533,0.692924015669961,0.0649421855532668,0.948220567583536,0.755185185185072,0.401865901676093,1.87919697101785,0.0602295860227963,1.00203703703706,0.22792842817575,4.39627932793189,1.10590136333436e-05,0.810740740740796,0.18429879391344,4.39905613881324,1.09185803579992e-05,-0.21666666666681,0.255404832605216,-0.848326417541662,0.396264582859646,0.00111111111097578,0.320839950917171,0.00346313203140535,0.997236854430962,0.384629629629526,0.489740338321601,0.78537461493921,0.432241633060363,-0.643703703703732,0.685655857297863,-0.938814562513237,0.347835311622975,0.829259259259179,0.407005053144982,2.03746674114089,0.0416141249590815,0.506666666666679,0.237174629071584,2.13625997287322,0.0326682119756708,0.428148148148147,0.195199421054661,2.19338841188599,0.0282888663302324
"46",0.0262962962963777,0.180100056478537,0.146009372848317,0.883915202922448,0.363518518518596,0.267882464173071,1.35700752059582,0.174791451897063,0.722407407407101,0.483094438429243,1.49537512738911,0.134829581410285,-0.750370370371361,0.724005260370376,-1.03641563320617,0.300018615062065,-0.851481481481791,0.504545263977206,-1.6876215917077,0.0914967521173445,-0.224629629629763,0.293569133003,-0.76516773862417,0.444179114388463,0.236296296296167,0.193655456678748,1.2201891976024,0.222405027027568,-0.0992592592593611,0.232124277928982,-0.427612570925171,0.668937009286281,-0.0714814814817192,0.296286181761141,-0.241258235726113,0.809357017822216,0.664259259258768,0.478326448907948,1.38871530264596,0.164932093715077,0.945740740740089,0.702359213173292,1.34652001853466,0.178147454280107,-0.498888888889264,0.413827055656083,-1.20554923142549,0.228003107999043,0.163148148148029,0.222891884428066,0.731960917135509,0.464199496649264,0.334444444444367,0.177153496213086,1.88787944688423,0.0590540648805099,-0.229259259260169,0.257528778064083,-0.890227729046733,0.373352450144862,0.112222222221115,0.324877453675082,0.345429394842989,0.729774578026825,0.53833333333209,0.494022615747958,1.08969370261935,0.275858919669372,0.553148148147207,0.701556244286682,0.788458733924646,0.430436135009651,-0.751666666666818,0.42534249515719,-1.76720331315363,0.0772067608344759,0.157407407407353,0.238512015289589,0.659955881955198,0.509288409638228,0.27444444444437,0.189290398257287,1.44985930068857,0.147110691791919
"47",-0.212222222222168,0.18228944201242,-1.16420468393177,0.24435252645585,0.284444444444495,0.272504044673578,1.04381733043713,0.296580317460151,1.20351851851836,0.485637304791403,2.47822501822694,0.013210538035575,-0.573148148148721,0.723973008759238,-0.791670602652709,0.428560511470216,-1.20981481481503,0.498928380318253,-2.42482661347771,0.0153229556126727,-0.325370370370458,0.286816103667724,-1.13442155516972,0.256628975482835,0.371481481481406,0.189004834420405,1.96546020963208,0.0493723917767868,-0.42999999999996,0.217386810681184,-1.97804088781905,0.0479353954057585,-0.29777777777776,0.28375482212722,-1.0494192681746,0.293995652534424,1.44666666666666,0.457929885730117,3.15914447112381,0.00158427273547857,2.17888888888882,0.690303199718409,3.15642298888031,0.00159912501401435,-0.855370370370705,0.398049199090521,-2.14890614608719,0.0316517088540392,0.287222222222139,0.21859249296561,1.31396196788572,0.188871433058491,0.433888888888853,0.17406705166046,2.49265374894272,0.0126858617621129,-0.118333333333475,0.24288684107838,-0.487195324407422,0.626124322374724,0.315370370370205,0.30823859452856,1.02313719296752,0.306253190385675,1.52129629629609,0.475790179563646,3.197410038373,0.00138845600408096,1.72925925925913,0.683775618623102,2.52898642794736,0.0114455305412974,-1.3266666666668,0.405537720266925,-3.27137674343483,0.00107174669063688,-0.168333333333342,0.228190673085581,-0.737687176505283,0.460711704569781,0.216111111111087,0.184873555416645,1.16896713877787,0.242428362379892
"48",2.3231481481482,0.191738440258249,12.1162357689944,1.08435764589427e-33,2.16370370370373,0.278918998663057,7.75746261127788,9.00466935502998e-15,-0.556296296296461,0.487872833782058,-1.14024856023234,0.254194023657766,0.00351851851870635,0.711868791278422,0.00494265033362054,0.996056392324746,0.604259259259152,0.493932792209861,1.22336331741752,0.221204389730695,-2.10277777777778,0.285645361210556,-7.36149807882851,1.87647116501959e-13,-2.1938888888889,0.19761045511999,-11.1020891458236,1.436104796621e-28,1.76500000000059,0.246132049500658,7.17094747953933,7.66163475117679e-13,1.28111111111174,0.313592227799435,4.08527698566276,4.41656997517414e-05,0.639074074074813,0.477336280046987,1.33883406895429,0.180637247737634,-1.84907407407326,0.678401471535116,-2.72563393751062,0.00642241894198949,-0.40222222222233,0.406583559317528,-0.989273208433419,0.322539359396005,-1.97759259259266,0.228268979732417,-8.6634311631429,4.85833998009278e-18,-1.91092592592598,0.184386930314921,-10.3636734049547,4.09327607854968e-25,1.84944444444439,0.271754338666138,6.80557467278015,1.02991768467697e-11,1.36685185185193,0.334380714747032,4.08771137679393,4.37052417534629e-05,0.294629629629654,0.488736108408648,0.602839905954533,0.546620834203113,-1.97888888888757,0.678714892830901,-2.91564088218792,0.00355283769377506,-0.37203703703702,0.413784340588923,-0.899108546513661,0.368603774086851,-2.14388888888888,0.241866140827921,-8.86394797366108,8.242592700726e-19,-2.18259259259256,0.196335004180319,-11.1166758149148,1.22069486533095e-28
"49",0.11592592592595,0.170165338566702,0.68125463682787,0.495716887231701,0.245000000000022,0.252726583181889,0.969427105433123,0.332341802747908,0.159074074073809,0.461087668965164,0.344997458793085,0.730099273393547,-0.119629629629757,0.739685888927103,-0.161730312042692,0.871519580657938,-0.238888888889114,0.465650446422186,-0.513021926049059,0.607940656744586,-0.119629629629699,0.262706973581206,-0.455372874191021,0.648845083996917,-0.102222222222266,0.173284247502339,-0.58991064505668,0.555256053565889,-1.28740740740694,0.201128645508226,-6.40091521599932,1.57272865576263e-10,-1.58851851851799,0.270632173486904,-5.86965879943636,4.42374947120448e-09,0.72333333333398,0.459643333503154,1.57368394276737,0.115573581941113,0.983148148148951,0.702155858263975,1.40018506799859,0.161470700346888,0.587592592592488,0.371123197615562,1.58328176833926,0.113370297452375,-0.0383333333334021,0.207276420173607,-0.184938225492777,0.853279035134479,-0.0716666666667443,0.167309717467417,-0.42834730553353,0.668402087345284,-1.05925925925921,0.233362689056214,-4.53911147297438,5.6763086989403e-06,-0.807777777777743,0.297313136589894,-2.71692595572045,0.00659380937971416,1.22407407407416,0.469608440120854,2.60658448506407,0.00915062013372304,0.257962962964092,0.690830715357154,0.373409805368493,0.708846727025145,0.393703703703723,0.382483945416282,1.02933393263142,0.30333304991853,-0.424814814814825,0.220644211414877,-1.92533858962674,0.0541986940662634,-0.510555555555598,0.181127788177678,-2.81875884806127,0.00482487712583417
"50",2.35277777777782,0.18084903088199,13.0096233654306,1.45238689609775e-38,2.22518518518512,0.266856294895195,8.33851487767616,7.91790400668967e-17,-0.277222222222443,0.481449105472983,-0.575807949523753,0.564750343160776,-0.115925925925793,0.707696942890415,-0.163807300696146,0.86988420937427,0.235740740740665,0.488190584173899,0.482886701183674,0.629180544302926,-2.16703703703697,0.279389599129823,-7.75632680595968,9.08544182119248e-15,-2.14092592592588,0.188583315186944,-11.3526794446453,8.55331038301621e-30,1.49351851851904,0.235786416491953,6.33420084472936,2.42761157498447e-10,1.28685185185236,0.301614551785349,4.26654431702678,1.99276443849495e-05,1.35629629629707,0.460919395563176,2.94258889808677,0.00325788430973187,-1.24037037036949,0.671193670772419,-1.84800665498239,0.0646135489791164,-0.682777777777996,0.403835976677384,-1.69073043812402,0.0909011496835341,-2.13462962962968,0.220995123828461,-9.65917072128073,4.92519260267116e-22,-2.13740740740744,0.176687252542945,-12.0971228916921,1.36689178869637e-33,1.80851851851827,0.258121720164667,7.00645616868096,2.50821924684629e-12,1.55240740740746,0.320097664014372,4.84979299110959,1.24356152934517e-06,0.872592592592576,0.472209523313669,1.84789283043101,0.0646300174428218,-1.6851851851839,0.672385925941257,-2.50627670831279,0.0122075029852713,-0.947962962962929,0.409343608425446,-2.31581229913251,0.0205768182975075,-2.3448148148148,0.232183264819501,-10.0989828730234,6.22480665572741e-24,-2.23666666666656,0.185833989558842,-12.0358319378293,2.86529927812663e-33
"51",0.0151851851852157,0.158218041977801,0.0959763184741363,0.923540173944236,0.196666666666696,0.240705317280811,0.817043299617938,0.413911710809745,0.567592592592317,0.459902970090687,1.23415726686956,0.217156268026275,-0.0692592592594218,0.744208104978075,-0.0930643711028412,0.925853191130306,-0.560925925926077,0.466943874809786,-1.20127055131535,0.229658002620814,-0.153518518518589,0.255650335133807,-0.600501925562654,0.548177390081005,-0.00018518518520912,0.162031504474197,-0.00114289616584169,0.999088110394564,-1.9211111111107,0.188392370757533,-10.1973933625117,2.28097090404332e-24,-1.95777777777733,0.258618136255155,-7.57014881526241,3.86066630490347e-14,1.85629629629701,0.44521615301927,4.1694271057067,3.06426348691716e-05,1.95388888888972,0.704099555288101,2.77501792781312,0.00552409215433963,0.402962962962782,0.371131740523235,1.08576798738548,0.277592446312949,-0.245555555555659,0.198981072722836,-1.23406488966766,0.217190685210712,-0.377037037037145,0.159871273066337,-2.35837889950809,0.01836283794667,-1.33777777777777,0.218363477834212,-6.12638061568819,9.12841979971155e-10,-0.822037037037074,0.282329306825508,-2.91162489038069,0.00359881658933866,1.73648148148154,0.45697753698778,3.79992743828889,0.000145092026989884,1.32370370370474,0.696468601117505,1.90059351072083,0.0573671229875388,-0.4409259259259,0.382778686135152,-1.15190824854395,0.249370134836411,-0.755555555555608,0.21145227769435,-3.57317293430978,0.000353365475882457,-0.585000000000039,0.170602018302253,-3.42903328941632,0.000606742387621645
